/*!
 * The following copyright notice may not be removed under any circumstances.
 * 
 * Copyright:
 * Generated in 2009 by FontLab Studio. Copyright info pending.
 */
Cufon.registerFont({"w":599,"face":{"font-family":"004T","font-weight":250,"font-stretch":"normal","units-per-em":"720","panose-1":"0 0 0 0 0 0 0 0 0 0","ascent":"540","descent":"-180","x-height":"4","bbox":"-70 -678 782 180","underline-thickness":"36","underline-position":"-36","unicode-range":"U+0020-U+20AC"},"glyphs":{" ":{"w":169},"\u00d7":{"d":"120,-28r303,-319r20,17r-305,318xm140,-347r304,319r-18,16r-305,-318"},"!":{"d":"80,0r0,-58r29,0r0,58r-29,0xm81,-153r0,-350r26,0r0,350r-26,0","w":187},"\"":{"d":"37,-361r0,-144r26,0r0,144r-26,0xm139,-361r0,-144r25,0r0,144r-25,0","w":201},"$":{"d":"325,-472r-2,25v0,0,-97,-12,-139,-12v-81,0,-129,22,-129,94v0,81,43,90,136,107v98,17,147,31,147,128v0,96,-54,135,-153,135v-55,0,-154,-11,-154,-11r3,-26v0,0,99,13,150,13v81,0,126,-34,126,-110v0,-81,-39,-90,-126,-104v-98,-17,-157,-32,-157,-131v0,-93,61,-119,157,-119v55,0,141,11,141,11xm125,81r85,-650r25,0r-85,655v0,0,-25,-2,-25,-5","w":366},"%":{"d":"184,-4r104,-501r26,5r-104,501xm148,-505v51,0,76,27,76,96v0,69,-26,99,-76,99v-51,0,-77,-30,-77,-100v0,-68,25,-95,77,-95xm96,-410v0,49,12,77,52,77v40,0,51,-27,51,-76v0,-49,-11,-73,-51,-73v-39,0,-52,24,-52,72xm350,-196v51,0,76,28,76,97v0,69,-26,99,-76,99v-51,0,-76,-30,-76,-100v0,-68,24,-96,76,-96xm299,-100v0,49,11,77,51,77v40,0,51,-27,51,-76v0,-49,-11,-74,-51,-74v-39,0,-51,25,-51,73","w":493},"&":{"d":"273,-489r0,24v0,0,-52,-7,-75,-7v-58,0,-86,21,-86,79v0,37,13,54,65,120r135,172v20,-28,45,-62,58,-145r23,5v-7,59,-25,109,-65,158r39,42v2,2,26,11,56,20r-8,24v-42,-11,-61,-18,-65,-23r-39,-42v-44,47,-65,68,-161,68v-106,0,-136,-43,-136,-145v0,-72,30,-109,113,-154v-36,-45,-43,-63,-43,-100v0,-73,35,-103,114,-103v25,0,75,7,75,7xm294,-81r-149,-192v-84,42,-104,77,-104,135v0,79,19,120,111,120v84,0,100,-20,142,-63","w":450},"'":{"d":"23,-351r-1,-152r28,0r-3,152r-24,0","w":72},"(":{"d":"111,-511r24,0v0,0,-67,187,-67,294v0,109,67,303,67,303r-24,0v0,0,-71,-194,-71,-303v0,-107,71,-294,71,-294","w":187},")":{"d":"43,-511r25,0v0,0,70,187,70,294v0,109,-70,303,-70,303r-25,0v0,0,68,-194,68,-303v0,-107,-68,-294,-68,-294","w":187},"+":{"d":"-35,-168r0,-25r362,0r0,25r-362,0xm132,0r0,-360r26,0r0,360r-26,0","w":295},",":{"d":"59,-3r0,-65r27,0r0,65v0,28,-27,50,-56,51r0,-21v0,0,29,-7,29,-30","w":122},"-":{"d":"43,-176r0,-24r231,0r0,24r-231,0","w":316},".":{"d":"55,0r0,-58r29,0r0,58r-29,0","w":101},"\/":{"d":"186,-9r200,-496r24,10r-200,496"},"0":{"d":"190,-482v107,0,169,59,169,181r0,136v0,115,-66,171,-168,171v-102,0,-169,-57,-169,-171r0,-136v0,-125,66,-181,168,-181xm190,-458v-91,0,-142,51,-142,157r0,136v0,97,57,147,143,147v86,0,142,-50,142,-147r0,-136v0,-103,-49,-157,-143,-157","w":381},"2":{"d":"352,0r-308,0r0,-25r189,-177v40,-37,69,-76,69,-136r0,-22v0,-63,-53,-98,-113,-98v-36,0,-137,17,-137,17r-2,-26v0,0,102,-15,139,-15v79,0,141,43,141,122r0,22v0,69,-33,111,-78,152r-174,161r274,0r0,25","w":381},"3":{"d":"44,-466v0,0,100,-16,143,-16v89,0,143,28,143,102r0,27v0,54,-27,82,-81,99v55,12,95,33,95,109r0,33v0,77,-69,118,-150,118v-63,0,-157,-16,-157,-16r5,-25v0,0,94,17,152,17v63,0,123,-34,123,-95r0,-32v0,-73,-43,-87,-116,-94r-98,0r0,-25r98,0v64,-7,101,-38,101,-90r0,-27v0,-55,-43,-77,-114,-77v-42,0,-141,16,-141,16","w":381},"4":{"d":"256,14r0,-114r-237,0r0,-45r137,-337r28,0r-137,339r0,18r209,0r0,-132r26,0r0,132r66,0r0,25r-66,0r0,114r-26,0","w":381},"5":{"d":"63,-476r262,0r0,25r-238,0r-12,182v0,0,83,-23,123,-23v79,0,143,38,143,116r0,56v0,90,-69,125,-155,125v-40,0,-141,-17,-141,-17r4,-24v0,0,106,17,137,17v68,0,127,-28,127,-101r0,-56v0,-63,-52,-91,-116,-91v-36,0,-127,24,-127,24r-20,-3","w":381},"6":{"d":"332,-471r-2,25v0,0,-100,-12,-123,-12v-92,0,-146,48,-146,148r0,49v0,1,79,-33,135,-33v99,0,150,40,150,124r0,38v0,82,-50,138,-154,138v-104,0,-158,-53,-158,-170r0,-146v0,-118,64,-172,173,-172v27,0,125,11,125,11xm194,-269v-52,0,-133,32,-133,32r0,71v0,106,43,148,131,148v89,0,127,-45,127,-114r0,-38v0,-66,-41,-99,-125,-99","w":381},"7":{"d":"45,-458r0,-24r291,0r0,47r-191,435r-25,-10r188,-431r0,-17r-263,0","w":381},"8":{"d":"189,-482v124,0,167,41,167,125v0,68,-24,89,-69,107v50,20,77,35,77,124v0,101,-71,132,-175,132v-104,0,-171,-32,-171,-132v0,-90,30,-104,76,-123v-42,-16,-69,-44,-69,-109v0,-82,46,-124,164,-124xm189,-18v87,0,147,-22,147,-108v0,-81,-27,-101,-95,-110r-109,0v-63,12,-86,30,-86,110v0,86,56,108,143,108xm189,-458v-104,0,-136,30,-136,101v0,66,31,90,79,97r108,0v58,-7,88,-30,88,-96v0,-70,-32,-102,-139,-102","w":381},":":{"d":"55,-248r0,-57r29,0r0,57r-29,0xm55,0r0,-58r29,0r0,58r-29,0","w":101},";":{"d":"59,-68r0,65v0,23,-29,30,-29,30r0,21v29,-1,56,-23,56,-51r0,-65r-27,0xm58,-248r0,-57r26,0r0,57r-26,0","w":122},"<":{"d":"252,-374r-227,148r227,156r0,30v0,0,-229,-154,-253,-172r0,-26r253,-164r0,28","w":252},"=":{"d":"143,-247r0,-24r364,0r0,24r-364,0xm144,-125r0,-25r364,0r0,25r-364,0"},">":{"d":"0,-374r0,-28r253,164r0,26v-24,18,-253,172,-253,172r0,-30r227,-156","w":252},"?":{"d":"253,-390v0,42,-19,74,-55,106r-47,42v-23,21,-34,38,-34,62r0,36r-26,0r0,-36v0,-39,16,-54,43,-78r47,-44v30,-27,44,-58,44,-88v0,-63,-37,-95,-110,-95v-24,0,-114,11,-114,11r-2,-24v0,0,87,-12,116,-12v86,0,138,41,138,120xm89,0r0,-58r28,0r0,58r-28,0","w":267},"A":{"d":"25,0r152,-504r81,0r152,503r-26,0r-48,-154r-237,0r-48,155r-26,0xm198,-480r-91,301r221,0r-91,-301r-39,0","w":434},"[":{"d":"176,-539r0,23r-105,0r0,582r105,0r0,23r-131,0r0,-628r131,0","w":216},"\\":{"d":"210,-505r200,496r-24,10r-200,-496"},"]":{"d":"41,-516r0,-23r132,0r-1,628r-131,0r0,-23r106,0r0,-582r-106,0","w":216},"_":{"d":"30,24r308,0r0,25r-308,0r0,-25","w":374},"a":{"d":"61,-336r0,-23v0,0,95,-7,147,-7v56,0,95,44,95,102r0,236r55,11r-2,23r-70,-15v0,0,-126,15,-153,15v-60,0,-93,-53,-93,-107v0,-54,32,-96,84,-100r154,-13r0,-47v0,-46,-26,-82,-70,-82v-50,0,-147,7,-147,7xm278,-30r0,-161r-151,12v-42,4,-61,37,-61,77v0,42,25,85,68,85v23,0,144,-13,144,-13","w":368},"b":{"d":"73,-504r25,0r0,168v0,0,88,-30,132,-30v59,0,110,42,110,117r0,115v0,52,-30,141,-112,141v-37,0,-155,-9,-155,-9r0,-502xm98,-312r0,289v0,0,95,7,130,7v50,0,87,-54,87,-120r0,-113v0,-56,-40,-94,-85,-94v-40,0,-132,31,-132,31","w":385},"c":{"d":"184,-366v14,0,97,6,97,6r0,23v0,0,-84,-6,-97,-6v-80,0,-113,44,-113,122r0,78v0,81,37,126,113,126v17,0,97,-6,97,-6r0,23v0,0,-77,6,-97,6v-93,0,-139,-48,-139,-150r0,-77v0,-96,45,-145,139,-145","w":316},"d":{"d":"312,-504r0,504r-25,0r0,-40v0,0,-87,46,-131,46v-60,0,-111,-42,-111,-117r0,-122v0,-73,43,-133,111,-133v37,0,107,9,131,12r0,-150r25,0xm287,-64r0,-266v-24,-4,-96,-13,-131,-13v-50,0,-85,47,-85,113r0,119v0,56,38,94,85,94v40,0,131,-47,131,-47","w":385},"e":{"d":"176,-17v50,0,128,-6,128,-6r0,23v0,0,-94,6,-128,6v-102,-1,-131,-63,-131,-177r0,-58v0,-89,59,-137,134,-137v89,0,136,47,136,137r0,58r-244,0v0,99,21,154,105,154xm71,-194r219,0r0,-35v0,-75,-36,-114,-111,-114v-68,0,-108,45,-108,114r0,35","w":356},"f":{"d":"100,-337r0,337r-25,0r0,-337r-50,0r0,-23r50,0r0,-44v0,-104,25,-128,91,-128v25,0,67,2,67,2r0,22v0,0,-47,-1,-67,-1v-49,0,-66,20,-66,106r0,43r117,0r0,23r-117,0","w":236},"g":{"d":"193,172r-37,0v-65,0,-116,-36,-116,-114v0,-48,23,-65,62,-93v-12,-7,-18,-24,-18,-46v0,-11,23,-58,23,-58v-33,-15,-62,-45,-62,-108v0,-71,40,-119,110,-119r32,0v21,0,53,10,53,10r104,-4r0,25r-82,0v18,17,32,43,32,88v0,75,-39,118,-110,118r-34,0v-6,0,-16,-2,-25,-3v0,0,-16,42,-16,51v0,32,10,39,62,39r54,0v81,0,118,30,118,102v0,77,-58,112,-150,112xm225,-19r-55,0v-22,0,-49,-4,-49,-4v-42,29,-56,45,-56,80v0,62,41,92,91,92r37,0v76,0,125,-26,125,-89v0,-58,-27,-79,-93,-79xm150,-152r33,0v58,0,86,-35,86,-95v0,-68,-34,-97,-83,-97r-31,0v-56,0,-85,37,-85,97v0,60,32,95,80,95","w":362},"h":{"d":"98,0r-25,0r0,-526r25,0r0,196v0,0,89,-36,133,-36v59,0,110,42,110,117r0,249r-25,0r0,-248v0,-58,-40,-95,-85,-95v-40,0,-133,37,-133,37r0,306","w":406},"i":{"d":"65,0r0,-360r25,0r0,360r-25,0xm65,-464r0,-40r25,0r0,40r-25,0","w":154},"j":{"d":"53,-37r0,-323r25,0r0,323v0,42,-8,72,-33,113r-46,74r-21,-15r44,-72v22,-35,31,-65,31,-100xm53,-464r0,-40r25,0r0,40r-25,0","w":142},"m":{"d":"98,0r-25,0r0,-360r25,0r0,30v19,-7,94,-36,133,-36v32,0,58,12,75,36v13,-5,92,-36,132,-36v59,0,111,42,111,117r0,249r-26,0r0,-249v0,-56,-40,-94,-85,-94v-32,0,-95,22,-122,33v7,17,11,37,11,61r0,249r-25,0r0,-249v0,-56,-26,-94,-71,-94v-35,0,-111,27,-133,36r0,307","w":619},"n":{"d":"98,0r-25,0r0,-360r25,0r0,35v19,-9,95,-41,133,-41v59,0,110,42,110,117r0,249r-25,0r0,-249v0,-56,-40,-94,-85,-94v-35,0,-111,33,-133,42r0,301","w":411},"o":{"d":"209,4r-46,0v-66,0,-118,-49,-118,-124r0,-114v0,-75,50,-132,118,-132r46,0v68,0,117,57,117,132r0,114v0,75,-51,124,-117,124xm163,-19r46,0v53,0,92,-45,92,-101r0,-114v0,-56,-39,-109,-92,-109r-46,0v-53,0,-92,53,-92,109r0,114v0,56,39,101,92,101","w":371},"p":{"d":"73,143r0,-503r25,0r0,35v0,0,80,-41,124,-41v60,0,118,42,118,117r0,121v0,73,-42,134,-110,134v-37,0,-109,-9,-132,-13r0,150r-25,0xm222,-343v-40,0,-124,42,-124,42r0,271v24,4,97,13,132,13v50,0,85,-47,85,-113r0,-119v0,-56,-46,-94,-93,-94","w":385},"q":{"d":"312,145r-25,0r0,-169v0,0,-87,31,-131,31v-59,0,-111,-42,-111,-117r0,-115v0,-52,30,-141,112,-141v37,0,155,9,155,9r0,502xm287,-48r0,-288v0,0,-95,-7,-130,-7v-50,0,-86,54,-86,120r0,113v0,56,40,94,85,94v40,0,131,-32,131,-32","w":385},"r":{"d":"73,0r0,-360r25,0r0,62v0,0,79,-49,150,-68r0,25v-63,17,-150,68,-150,68r0,273r-25,0","w":262},"s":{"d":"294,-359r-1,23v0,0,-103,-7,-127,-7v-53,0,-94,21,-94,72v0,48,29,62,98,71r29,3v67,9,108,37,108,95v0,78,-54,108,-133,108v-24,0,-117,-10,-117,-10r1,-23v0,0,96,10,116,10v66,0,107,-26,107,-84v0,-41,-29,-66,-88,-72r-32,-3v-72,-8,-116,-31,-116,-94v0,-69,56,-96,121,-96v32,0,128,7,128,7","w":352},"t":{"d":"25,-337r0,-23r59,0r0,-82r25,0r0,82r121,0r0,23r-121,0r0,220v0,60,20,94,80,94r41,0r0,23r-41,0v-76,0,-105,-41,-105,-117r0,-220r-59,0","w":252},"v":{"d":"52,-360r98,337r36,0r98,-337r27,0r-106,360r-74,0r-106,-360r27,0","w":336},"w":{"d":"27,-360r26,0r80,337r40,0r91,-328r26,0r92,328r39,0r82,-337r25,0r-88,360r-78,0r-86,-315r-84,315r-78,0","w":555},"x":{"d":"135,-180r-122,-180r29,0r108,161r108,-161r29,0r-122,180r122,180r-30,0r-107,-161r-108,161r-29,0","w":313},"y":{"d":"137,0r-112,-360r25,0r106,337r18,0r107,-337r25,0r-165,526r-25,0r52,-166r-31,0","w":331},"z":{"d":"71,-24r231,0r0,24r-262,0r0,-22r233,-315r-233,1r0,-24r262,0r0,24","w":341},"{":{},"\u00ae":{"d":"122,-312v0,-106,78,-192,184,-192v106,0,184,86,184,192v0,106,-78,190,-184,190v-106,0,-184,-84,-184,-190xm313,-316r0,23r-57,0r0,94r-23,0r0,-227r65,0v61,0,83,17,83,65v0,42,-17,68,-68,68r0,-23v32,0,45,-10,45,-45v0,-32,-19,-41,-58,-41r-44,0r0,86r57,0xm360,-199r-48,-94r24,-9r49,103r-25,0xm145,-312v0,93,68,167,161,167v93,0,161,-74,161,-167v0,-93,-68,-169,-161,-169v-93,0,-161,76,-161,169"},"\u00af":{},"l":{"d":"94,0r-26,0r0,-504r26,0r0,504","w":162},"u":{"d":"306,-360r25,0r0,360r-25,0r0,-30v-19,7,-94,37,-131,37v-59,0,-110,-42,-110,-117r0,-250r25,0r0,250v0,56,40,94,85,94v34,0,109,-30,131,-39r0,-305","w":403},"k":{"d":"98,0r-25,0r0,-526r25,0r0,316r68,0r131,-150r30,0r-138,163r138,197r-30,0r-131,-185r-68,0r0,185","w":348},"B":{"d":"74,-504r179,0v88,0,142,38,142,125v0,66,-22,95,-72,117v50,17,92,39,92,121v0,94,-52,141,-148,141r-193,0r0,-504xm261,-248r-161,0r0,224r167,0v80,0,121,-41,121,-117v0,-76,-51,-107,-127,-107xm253,-480r-153,0r0,207r161,0v75,0,106,-36,106,-106v0,-66,-41,-101,-114,-101","w":458},"C":{"d":"361,-32r3,25v0,0,-93,13,-139,13v-104,0,-167,-47,-167,-172r0,-177v0,-100,60,-167,167,-167v51,0,139,15,139,15r-3,24v0,0,-92,-15,-136,-15v-91,0,-140,60,-140,143r0,177v0,105,53,148,140,148v40,0,136,-14,136,-14","w":396},"D":{"d":"244,0r-170,0r0,-504r170,0v104,0,167,47,167,172r0,164v0,100,-60,168,-167,168xm384,-168r0,-164v0,-105,-53,-148,-140,-148r-144,0r0,456r144,0v91,0,140,-61,140,-144","w":468},"E":{"d":"74,0r0,-504r295,0r0,26r-269,0r0,203r225,0r0,26r-225,0r0,223r269,0r0,26r-295,0","w":411},"F":{"d":"74,0r0,-504r295,0r0,24r-269,0r0,224r226,0r0,24r-226,0r0,232r-26,0","w":405},"G":{"d":"249,-18v50,0,130,-13,130,-13r0,-194r-109,0r0,-25r135,0r0,241v0,0,-99,15,-155,15v-104,0,-192,-47,-192,-172r0,-177v0,-103,80,-167,192,-167v44,0,155,22,155,22r-4,24v0,0,-112,-22,-151,-22v-96,0,-165,57,-165,143r0,177v0,105,77,148,164,148","w":458},"H":{"d":"401,0r0,-240r-301,0r0,240r-26,0r0,-504r26,0r0,239r301,0r0,-239r26,0r0,504r-26,0","w":501},"I":{"d":"68,0r0,-504r26,0r0,504r-26,0","w":162},"K":{"d":"361,0r-188,-237r-73,0r0,237r-26,0r0,-504r26,0r0,243r71,0r180,-243r31,0r-188,253r200,251r-33,0","w":429},"L":{"d":"354,0r-272,0r0,-504r26,0r0,480r246,0r0,24","w":362},"M":{"d":"74,0r0,-504r81,0r138,462r147,-462r81,0r0,504r-26,0r0,-480r-34,0r-149,466r-38,0r-141,-466r-33,0r0,480r-26,0","w":594},"N":{"d":"74,0r0,-504r81,0r0,3r218,477r36,0r0,-480r25,0r0,504r-80,0r0,-3r-219,-477r-35,0r0,480r-26,0","w":508},"O":{"d":"58,-166r0,-172v0,-120,61,-172,181,-172v120,0,186,52,186,172r0,172v0,120,-66,173,-186,173v-120,0,-181,-53,-181,-173xm86,-338r0,172v0,104,49,149,153,149v104,0,158,-45,158,-149r0,-172v0,-104,-54,-148,-158,-148v-104,0,-153,44,-153,148","w":482},"P":{"d":"266,-184r-166,0r0,184r-26,0r0,-504r192,0v88,0,139,41,139,118r0,70v0,76,-43,132,-139,132xm379,-316r0,-69v0,-62,-40,-95,-113,-95r-166,0r0,272r166,0v78,0,113,-46,113,-108","w":451},"Q":{"d":"376,99r-69,-113r24,-13r71,114xm58,-166r0,-172v0,-120,61,-172,181,-172v120,0,186,52,186,172r0,172v0,120,-66,173,-186,173v-120,0,-181,-53,-181,-173xm86,-338r0,172v0,104,49,149,153,149v104,0,158,-45,158,-149r0,-172v0,-104,-54,-148,-158,-148v-104,0,-153,44,-153,148","w":482},"R":{"d":"262,-233r0,25r-162,0r0,208r-26,0r0,-504r188,0v88,0,139,42,139,119r0,52v0,69,-43,125,-139,125r0,-25v78,0,113,-46,113,-100r0,-51v0,-62,-40,-96,-113,-96r-162,0r0,247r162,0xm393,0r-117,-215r24,-11r121,226r-28,0","w":460},"S":{"d":"334,-500r-1,24v0,0,-97,-11,-139,-11v-82,0,-128,28,-128,100v0,88,45,98,135,113v91,15,147,36,147,128v0,112,-54,151,-153,151v-55,0,-154,-11,-154,-11r3,-26v0,0,99,13,150,13v82,0,126,-35,126,-125v0,-73,-39,-90,-126,-104v-98,-17,-156,-30,-156,-137v0,-93,60,-127,156,-127v55,0,140,12,140,12","w":385},"T":{"d":"0,-480r0,-24r360,0r0,24r-166,0r0,480r-26,0r0,-480r-168,0","w":360},"U":{"d":"387,-504r26,0r0,362v0,88,-47,146,-124,146r-88,0v-69,0,-129,-50,-129,-146r0,-362r26,0r0,362v0,78,50,122,104,122r87,0v62,0,98,-49,98,-122r0,-362","w":484},"V":{"d":"392,-504r-140,504r-84,0r-143,-504r26,0r138,480r42,0r135,-480r26,0","w":416},"W":{"d":"382,0r-102,-263r-106,263r-70,0r-68,-504r26,0r64,480r32,0r110,-268r0,-59r26,0r0,59r105,268r29,0r78,-480r26,0r-81,504r-69,0","w":568},"X":{"d":"60,-504r150,235r149,-235r31,0r-161,254r161,250r-31,0r-149,-232r-150,232r-31,0r163,-250r-163,-254r31,0","w":418},"Y":{"d":"208,-231r0,231r-26,0r0,-231r-164,-273r30,0r147,249r146,-249r30,0","w":388},"Z":{"d":"43,-480r0,-24r324,0r0,50r-298,414r0,16r298,0r0,25r-324,0r0,-50r298,-411r0,-20r-298,0","w":410},"J":{"d":"150,-505r0,429v0,128,-39,129,-125,129r0,-25v84,0,99,0,99,-111r0,-422r26,0","w":218},"`":{"d":"120,-491r138,69r-11,20r-139,-67","w":392},"\u00b4":{"d":"108,-422r138,-69r12,22r-139,67"},"\u00fd":{"d":"25,-360r112,360r31,0r-52,166r25,0r165,-526r-25,0r-107,337r-18,0r-106,-337r-25,0xm98,-422r138,-69r12,22r-139,67","w":345},"\u00e1":{"d":"61,-359r0,23v0,0,97,-7,147,-7v44,0,70,36,70,82r0,47r-154,13v-52,4,-84,46,-84,100v0,54,33,107,93,107v27,0,153,-15,153,-15r63,13r2,-23r-48,-9r0,-236v0,-58,-39,-102,-95,-102v-52,0,-147,7,-147,7xm278,-191r0,161v0,0,-121,13,-144,13v-43,0,-68,-43,-68,-85v0,-40,19,-73,61,-77xm145,-458r139,-69r11,22r-139,67","w":385},"\u00e0":{"d":"61,-336r0,-23v0,0,95,-7,147,-7v56,0,95,44,95,102r0,236r48,9r-2,23r-63,-13v0,0,-126,15,-153,15v-60,0,-93,-53,-93,-107v0,-54,32,-96,84,-100r154,-13r0,-47v0,-46,-26,-82,-70,-82v-50,0,-147,7,-147,7xm278,-30r0,-161r-151,12v-42,4,-61,37,-61,77v0,42,25,85,68,85v23,0,144,-13,144,-13xm114,-527r138,69r-11,20r-139,-67","w":385},"\u00e2":{"d":"61,-359r0,23v0,0,97,-7,147,-7v44,0,70,36,70,82r0,47r-154,13v-52,4,-84,46,-84,100v0,54,33,107,93,107v27,0,153,-15,153,-15r63,13r2,-23r-48,-9r0,-236v0,-58,-39,-102,-95,-102v-52,0,-147,7,-147,7xm278,-191r0,161v0,0,-121,13,-144,13v-43,0,-68,-43,-68,-85v0,-40,19,-73,61,-77xm81,-432r87,-95r21,0r87,95r-30,0r-67,-71r-67,71r-31,0","w":385},"\u00e4":{"d":"102,-459r0,-45r25,0r0,45r-25,0xm224,-459r0,-45r25,0r0,45r-25,0xm60,-359r0,23v0,0,97,-7,147,-7v44,0,70,36,70,82r0,47r-154,13v-52,4,-84,46,-84,100v0,54,33,107,93,107v27,0,153,-15,153,-15r63,13r2,-23r-48,-9r0,-236v0,-58,-39,-102,-95,-102v-52,0,-147,7,-147,7xm277,-191r0,161v0,0,-121,13,-144,13v-43,0,-67,-43,-67,-85v0,-40,19,-73,61,-77","w":385},"\u00e3":{"d":"61,-359r0,23v0,0,97,-7,147,-7v44,0,70,36,70,82r0,47r-154,13v-52,4,-84,46,-84,100v0,54,33,107,93,107v27,0,153,-15,153,-15r63,13r2,-23r-48,-9r0,-236v0,-58,-39,-102,-95,-102v-52,0,-147,7,-147,7xm278,-191r0,161v0,0,-121,13,-144,13v-43,0,-68,-43,-68,-85v0,-40,19,-73,61,-77xm271,-508r18,17v-19,21,-41,40,-61,40v-43,0,-59,-39,-93,-39v-15,0,-35,17,-48,29r-20,-17v22,-21,44,-39,68,-39v45,0,63,38,93,38v12,0,31,-17,43,-29","w":385},"\u00e5":{"d":"61,-359r0,23v0,0,97,-7,147,-7v44,0,70,36,70,82r0,47r-154,13v-52,4,-84,46,-84,100v0,54,33,107,93,107v27,0,153,-15,153,-15r63,13r2,-23r-48,-9r0,-236v0,-58,-39,-102,-95,-102v-52,0,-147,7,-147,7xm278,-191r0,161v0,0,-121,13,-144,13v-43,0,-68,-43,-68,-85v0,-40,19,-73,61,-77xm114,-467v0,-35,29,-64,65,-64v35,0,64,29,64,64v0,36,-29,64,-64,64v-36,0,-65,-28,-65,-64xm135,-467v0,25,19,44,44,44v24,0,43,-19,43,-44v0,-24,-19,-44,-43,-44v-25,0,-44,20,-44,44","w":385},"\u00e9":{"d":"176,-17v50,0,128,-6,128,-6r0,23v0,0,-94,6,-128,6v-102,-1,-131,-63,-131,-177r0,-58v0,-89,59,-137,134,-137v89,0,136,47,136,137r0,58r-244,0v0,99,21,154,105,154xm71,-194r219,0r0,-35v0,-75,-36,-114,-111,-114v-68,0,-108,45,-108,114r0,35xm120,-458r138,-69r12,22r-139,67","w":357},"\u00e8":{"d":"176,-17v50,0,128,-6,128,-6r0,23v0,0,-94,6,-128,6v-102,-1,-131,-63,-131,-177r0,-58v0,-89,59,-137,134,-137v89,0,136,47,136,137r0,58r-244,0v0,99,21,154,105,154xm71,-194r219,0r0,-35v0,-75,-36,-114,-111,-114v-68,0,-108,45,-108,114r0,35xm102,-527r138,69r-11,20r-139,-67","w":357},"\u00ea":{"d":"89,-432r87,-95r21,0r87,95r-30,0r-67,-71r-67,71r-31,0xm176,-17v50,0,128,-6,128,-6r0,23v0,0,-94,6,-128,6v-102,-1,-131,-63,-131,-177r0,-58v0,-89,59,-137,134,-137v89,0,136,47,136,137r0,58r-244,0v0,99,21,154,105,154xm71,-194r219,0r0,-35v0,-75,-36,-114,-111,-114v-68,0,-108,45,-108,114r0,35","w":357},"\u00eb":{"d":"119,-459r0,-45r25,0r0,45r-25,0xm241,-459r0,-45r25,0r0,45r-25,0xm180,-17v50,0,127,-6,127,-6r0,23v0,0,-94,6,-128,6v-102,-1,-130,-63,-130,-177r0,-58v0,-89,58,-137,133,-137v89,0,137,47,137,137r0,58r-245,0v0,99,22,154,106,154xm74,-194r220,0r0,-35v0,-75,-37,-114,-112,-114v-68,0,-108,45,-108,114r0,35","w":357},"\u00ef":{"d":"290,0r0,-360r25,0r0,360r-25,0xm229,-459r0,-45r25,0r0,45r-25,0xm351,-459r0,-45r26,0r0,45r-26,0"},"\u00f1":{"d":"98,0r-25,0r0,-360r25,0r0,35v19,-9,95,-41,133,-41v59,0,110,42,110,117r0,249r-25,0r0,-249v0,-56,-40,-94,-85,-94v-35,0,-111,33,-133,42r0,301xm307,-508r18,17v-19,21,-41,40,-61,40v-43,0,-59,-39,-93,-39v-15,0,-35,17,-48,29r-20,-17v22,-21,44,-39,68,-39v45,0,63,38,93,38v12,0,31,-17,43,-29","w":413},"\u00f3":{"d":"163,4r46,0v66,0,117,-49,117,-124r0,-114v0,-75,-49,-132,-117,-132r-46,0v-68,0,-118,57,-118,132r0,114v0,75,52,124,118,124xm209,-19r-46,0v-53,0,-92,-45,-92,-101r0,-114v0,-56,39,-109,92,-109r46,0v53,0,92,53,92,109r0,114v0,56,-39,101,-92,101xm125,-458r139,-69r11,22r-139,67","w":385},"\u00f2":{"d":"209,4r-46,0v-66,0,-118,-49,-118,-124r0,-114v0,-75,50,-132,118,-132r46,0v68,0,117,57,117,132r0,114v0,75,-51,124,-117,124xm163,-19r46,0v53,0,92,-45,92,-101r0,-114v0,-56,-39,-109,-92,-109r-46,0v-53,0,-92,53,-92,109r0,114v0,56,39,101,92,101xm108,-527r138,69r-11,20r-139,-67","w":385},"\u00f4":{"d":"163,4r46,0v66,0,117,-49,117,-124r0,-114v0,-75,-49,-132,-117,-132r-46,0v-68,0,-118,57,-118,132r0,114v0,75,52,124,118,124xm209,-19r-46,0v-53,0,-92,-45,-92,-101r0,-114v0,-56,39,-109,92,-109r46,0v53,0,92,53,92,109r0,114v0,56,-39,101,-92,101xm89,-432r87,-95r20,0r88,95r-31,0r-67,-71r-67,71r-30,0","w":385},"\u00f6":{"d":"163,4r46,0v66,0,117,-49,117,-124r0,-114v0,-75,-49,-132,-117,-132r-46,0v-68,0,-118,57,-118,132r0,114v0,75,52,124,118,124xm209,-19r-46,0v-53,0,-92,-45,-92,-101r0,-114v0,-56,39,-109,92,-109r46,0v53,0,92,53,92,109r0,114v0,56,-39,101,-92,101xm116,-459r0,-45r25,0r0,45r-25,0xm238,-459r0,-45r26,0r0,45r-26,0","w":385},"\u00f5":{"d":"163,4r46,0v66,0,117,-49,117,-124r0,-114v0,-75,-49,-132,-117,-132r-46,0v-68,0,-118,57,-118,132r0,114v0,75,52,124,118,124xm209,-19r-46,0v-53,0,-92,-45,-92,-101r0,-114v0,-56,39,-109,92,-109r46,0v53,0,92,53,92,109r0,114v0,56,-39,101,-92,101xm286,-459r18,17v-19,21,-42,40,-62,40v-43,0,-59,-39,-93,-39v-15,0,-34,17,-47,29r-21,-17v22,-21,45,-39,69,-39v45,0,62,38,92,38v12,0,32,-17,44,-29","w":385},"\u00fa":{"d":"306,-360r25,0r0,360r-25,0r0,-30v-19,7,-94,37,-131,37v-59,0,-110,-42,-110,-117r0,-250r25,0r0,250v0,56,40,94,85,94v34,0,109,-30,131,-39r0,-305xm139,-458r138,-69r12,22r-139,67","w":367},"\u00f9":{"d":"306,-360r25,0r0,360r-25,0r0,-30v-19,7,-94,37,-131,37v-59,0,-110,-42,-110,-117r0,-250r25,0r0,250v0,56,40,94,85,94v34,0,109,-30,131,-39r0,-305xm125,-527r139,69r-11,20r-139,-67","w":367},"\u00fb":{"d":"102,-432r87,-95r20,0r88,95r-31,0r-67,-71r-67,71r-30,0xm306,-360r25,0r0,360r-25,0r0,-30v-19,7,-94,37,-131,37v-59,0,-110,-42,-110,-117r0,-250r25,0r0,250v0,56,40,94,85,94v34,0,109,-30,131,-39r0,-305","w":367},"\u00fc":{"d":"122,-459r0,-45r26,0r0,45r-26,0xm245,-459r0,-45r25,0r0,45r-25,0xm304,-360r25,0r0,360r-25,0r0,-30v-19,7,-94,37,-131,37v-59,0,-110,-42,-110,-117r0,-250r25,0r0,250v0,56,40,94,85,94v34,0,109,-30,131,-39r0,-305","w":367},"*":{"d":"198,-374r0,-24r114,0r0,24r-114,0xm210,-382r-23,-8r35,-109r24,7xm206,-397r-14,20r-93,-68r14,-19xm191,-397r14,20r-93,67r-14,-20xm186,-383r23,-7r35,109r-23,7","w":381},"\u00ed":{"d":"81,0r0,-360r26,0r0,360r-26,0xm41,-458r138,-69r12,22r-139,67","w":187},"\u00ec":{"d":"81,0r0,-360r26,0r0,360r-26,0xm8,-527r138,69r-11,20r-139,-67","w":187},"\u00ee":{"d":"81,0r0,-360r26,0r0,360r-26,0xm-4,-432r88,-95r20,0r88,95r-31,0r-67,-71r-67,71r-31,0","w":187},"1":{"d":"65,-370r147,-98r26,0r0,468r-26,0r0,-440r-135,91","w":381},"9":{"d":"48,-5r2,-25v0,0,100,12,123,12v92,0,146,-48,146,-148r0,-54v0,-1,-79,32,-135,32v-99,0,-150,-40,-150,-124r0,-31v0,-82,54,-139,155,-139v104,0,157,53,157,170r0,146v0,118,-64,172,-173,172v-27,0,-125,-11,-125,-11xm186,-212v52,0,133,-33,133,-33r0,-65v0,-106,-42,-148,-130,-148v-89,0,-128,46,-128,115r0,31v0,66,41,100,125,100","w":381},"\u00c0":{"d":"25,0r152,-504r81,0r152,503r-26,0r-48,-154r-237,0r-48,155r-26,0xm198,-480r-91,301r221,0r-91,-301r-39,0xm147,-671r138,69r-11,20r-139,-67","w":434},"\u00c1":{"d":"25,0r152,-504r81,0r152,503r-26,0r-48,-154r-237,0r-48,155r-26,0xm198,-480r-91,301r221,0r-91,-301r-39,0xm150,-602r138,-69r12,22r-139,67","w":434},"\u00c2":{"d":"25,0r152,-504r81,0r152,503r-26,0r-48,-154r-237,0r-48,155r-26,0xm198,-480r-91,301r221,0r-91,-301r-39,0xm120,-576r87,-95r20,0r88,95r-31,0r-67,-71r-67,71r-30,0","w":434},"\u00c3":{"d":"25,0r152,-504r81,0r152,503r-26,0r-48,-154r-237,0r-48,155r-26,0xm198,-480r-91,301r221,0r-91,-301r-39,0xm310,-652r18,17v-19,21,-42,40,-62,40v-43,0,-58,-39,-92,-39v-15,0,-35,17,-48,29r-20,-17v22,-21,44,-39,68,-39v45,0,62,38,92,38v12,0,32,-17,44,-29","w":434},"\u00c4":{"d":"25,0r152,-504r81,0r152,503r-26,0r-48,-154r-237,0r-48,155r-26,0xm198,-480r-91,301r221,0r-91,-301r-39,0xm143,-603r0,-45r25,0r0,45r-25,0xm266,-603r0,-45r25,0r0,45r-25,0","w":434},"\u00c5":{"d":"25,0r152,-504r81,0r152,503r-26,0r-48,-154r-237,0r-48,155r-26,0xm198,-480r-91,301r221,0r-91,-301r-39,0xm150,-611v0,-38,28,-67,67,-67v38,0,68,29,68,67v0,39,-30,68,-68,68v-39,0,-67,-29,-67,-68xm174,-611v0,25,19,45,44,45v24,0,43,-20,43,-45v0,-24,-19,-43,-43,-43v-25,0,-44,19,-44,43","w":434},"\u00c6":{"d":"487,0r0,-155r-198,0r-56,155r-29,0r180,-504r398,0r0,26r-269,0r0,203r226,0r0,26r-226,0r0,223r269,0r0,26r-295,0xm405,-478r-107,299r189,0r0,-299r-82,0","w":846},"\u00c8":{"d":"74,0r0,-504r295,0r0,26r-269,0r0,203r225,0r0,26r-225,0r0,223r269,0r0,26r-295,0xm158,-671r138,69r-11,20r-139,-67","w":411},"\u00c9":{"d":"74,0r0,-504r295,0r0,26r-269,0r0,203r225,0r0,26r-225,0r0,223r269,0r0,26r-295,0xm161,-602r138,-69r11,22r-139,67","w":411},"\u00ca":{"d":"74,0r0,-504r295,0r0,26r-269,0r0,203r225,0r0,26r-225,0r0,223r269,0r0,26r-295,0xm124,-576r87,-95r20,0r88,95r-30,0r-67,-71r-68,71r-30,0","w":411},"\u00cb":{"d":"74,0r0,-504r295,0r0,26r-269,0r0,203r225,0r0,26r-225,0r0,223r269,0r0,26r-295,0xm148,-603r0,-45r25,0r0,45r-25,0xm270,-603r0,-45r25,0r0,45r-25,0","w":411},"\u00cc":{"d":"68,0r0,-504r26,0r0,504r-26,0xm18,-671r138,69r-11,20r-139,-67","w":162},"\u00cd":{"d":"68,0r0,-504r26,0r0,504r-26,0xm6,-602r139,-69r11,22r-139,67","w":162},"\u00ce":{"d":"68,0r0,-504r26,0r0,504r-26,0xm-16,-576r87,-95r20,0r88,95r-30,0r-67,-71r-68,71r-30,0","w":162},"\u00cf":{"d":"68,0r0,-504r26,0r0,504r-26,0xm8,-603r0,-45r25,0r0,45r-25,0xm130,-603r0,-45r26,0r0,45r-26,0","w":162},"\u00d1":{"d":"74,0r0,-504r81,0r0,3r218,477r36,0r0,-480r25,0r0,504r-80,0r0,-3r-219,-477r-35,0r0,480r-26,0xm347,-652r18,17v-19,21,-42,40,-62,40v-43,0,-59,-39,-93,-39v-15,0,-34,17,-47,29r-20,-17v22,-21,44,-39,68,-39v45,0,62,38,92,38v12,0,32,-17,44,-29","w":508},"\u00d2":{"d":"58,-166r0,-172v0,-120,61,-172,181,-172v120,0,186,52,186,172r0,172v0,120,-66,173,-186,173v-120,0,-181,-53,-181,-173xm86,-338r0,172v0,104,49,149,153,149v104,0,158,-45,158,-149r0,-172v0,-104,-54,-148,-158,-148v-104,0,-153,44,-153,148xm177,-671r138,69r-10,20r-139,-67","w":482},"\u00d3":{"d":"58,-166r0,-172v0,-120,61,-172,181,-172v120,0,186,52,186,172r0,172v0,120,-66,173,-186,173v-120,0,-181,-53,-181,-173xm86,-338r0,172v0,104,49,149,153,149v104,0,158,-45,158,-149r0,-172v0,-104,-54,-148,-158,-148v-104,0,-153,44,-153,148xm166,-602r139,-69r11,22r-139,67","w":482},"\u00d4":{"d":"58,-166r0,-172v0,-120,61,-172,181,-172v120,0,186,52,186,172r0,172v0,120,-66,173,-186,173v-120,0,-181,-53,-181,-173xm86,-338r0,172v0,104,49,149,153,149v104,0,158,-45,158,-149r0,-172v0,-104,-54,-148,-158,-148v-104,0,-153,44,-153,148xm143,-576r87,-95r21,0r87,95r-30,0r-67,-71r-67,71r-31,0","w":482},"\u00d5":{"d":"58,-166r0,-172v0,-120,61,-172,181,-172v120,0,186,52,186,172r0,172v0,120,-66,173,-186,173v-120,0,-181,-53,-181,-173xm86,-338r0,172v0,104,49,149,153,149v104,0,158,-45,158,-149r0,-172v0,-104,-54,-148,-158,-148v-104,0,-153,44,-153,148xm334,-652r18,17v-19,21,-42,40,-62,40v-43,0,-59,-39,-93,-39v-15,0,-34,17,-47,29r-20,-17v22,-21,44,-39,68,-39v45,0,62,38,92,38v12,0,32,-17,44,-29","w":482},"\u00d6":{"d":"166,-603r0,-45r26,0r0,45r-26,0xm289,-603r0,-45r25,0r0,45r-25,0xm58,-166r0,-172v0,-120,61,-172,181,-172v120,0,186,52,186,172r0,172v0,120,-66,173,-186,173v-120,0,-181,-53,-181,-173xm86,-338r0,172v0,104,49,149,153,149v104,0,158,-45,158,-149r0,-172v0,-104,-54,-148,-158,-148v-104,0,-153,44,-153,148","w":482},"\u00d8":{"d":"58,-166r0,-172v0,-120,61,-172,181,-172v120,0,186,52,186,172r0,172v0,120,-66,173,-186,173v-120,0,-181,-53,-181,-173xm86,-338r0,172v0,104,49,149,153,149v104,0,158,-45,158,-149r0,-172v0,-104,-54,-148,-158,-148v-104,0,-153,44,-153,148xm79,71r300,-641r24,10r-300,640","w":482},"\u00d9":{"d":"387,-504r26,0r0,362v0,88,-46,146,-123,146r-88,0v-69,0,-129,-50,-129,-146r0,-362r26,0r0,362v0,78,49,122,103,122r88,0v62,0,97,-49,97,-122r0,-362xm179,-671r139,69r-11,20r-139,-67","w":484},"\u00da":{"d":"387,-504r26,0r0,362v0,88,-47,146,-124,146r-88,0v-69,0,-129,-50,-129,-146r0,-362r26,0r0,362v0,78,50,122,104,122r87,0v62,0,98,-49,98,-122r0,-362xm167,-602r138,-69r12,22r-139,67","w":484},"\u00db":{"d":"387,-504r26,0r0,362v0,88,-47,146,-124,146r-88,0v-69,0,-129,-50,-129,-146r0,-362r26,0r0,362v0,78,50,122,104,122r87,0v62,0,98,-49,98,-122r0,-362xm145,-576r88,-95r20,0r88,95r-31,0r-67,-71r-67,71r-31,0","w":484},"\u00dc":{"d":"170,-603r0,-45r25,0r0,45r-25,0xm292,-603r0,-45r26,0r0,45r-26,0xm387,-504r26,0r0,362v0,88,-47,146,-124,146r-88,0v-69,0,-129,-50,-129,-146r0,-362r26,0r0,362v0,78,50,122,104,122r87,0v62,0,98,-49,98,-122r0,-362","w":484},"\u00a8":{"d":"167,-459r0,-45r25,0r0,45r-25,0xm289,-459r0,-45r26,0r0,45r-26,0"},"\u00ff":{"d":"25,-360r112,360r31,0r-52,166r25,0r165,-526r-25,0r-107,337r-18,0r-106,-337r-25,0xm92,-459r0,-45r25,0r0,45r-25,0xm215,-459r0,-45r25,0r0,45r-25,0","w":331},"\u00f7":{"d":"37,-348r0,-57r29,0r0,57r-29,0xm37,-100r0,-58r29,0r0,58r-29,0xm-70,-240r0,-26r242,0r0,26r-242,0","w":101},"\u00f8":{"d":"209,4r-46,0v-66,0,-118,-49,-118,-124r0,-114v0,-75,50,-132,118,-132r46,0v68,0,117,57,117,132r0,114v0,75,-51,124,-117,124xm163,-19r46,0v53,0,92,-45,92,-101r0,-114v0,-56,-39,-109,-92,-109r-46,0v-53,0,-92,53,-92,109r0,114v0,56,39,101,92,101xm75,68r201,-495r22,8r-202,494","w":371},"\u00e6":{"d":"197,-336r0,-23v0,0,95,-7,147,-7v56,0,95,44,95,102r0,145r22,91r8,11v0,0,-173,23,-200,23v-60,0,-93,-53,-93,-107v0,-54,32,-96,84,-100r154,-13r0,-47v0,-46,-26,-82,-70,-82v-50,0,-147,7,-147,7xm414,-171r0,-20r-150,12v-42,4,-62,37,-62,77v0,42,25,85,68,85v23,0,174,-20,174,-20xm545,-17v50,0,127,-6,127,-6r0,23v0,0,-94,6,-128,6v-102,-1,-130,-63,-130,-177r0,-58v0,-89,58,-137,133,-137v89,0,137,47,137,137r0,58r-245,0v0,99,22,154,106,154xm439,-194r220,0r0,-35v0,-75,-37,-114,-112,-114v-68,0,-108,45,-108,114r0,35","w":725},"|":{"d":"289,42r0,-546r26,0r0,546r-26,0"},"\u00a9":{"d":"122,-312v0,-106,78,-192,184,-192v106,0,184,86,184,192v0,106,-78,190,-184,190v-106,0,-184,-84,-184,-190xm145,-312v0,93,68,167,161,167v93,0,161,-74,161,-167v0,-93,-68,-169,-161,-169v-93,0,-161,76,-161,169xm359,-231r0,23v0,0,-31,6,-53,6v-63,0,-78,-44,-78,-110v0,-66,13,-111,78,-111v27,0,53,5,53,5r0,23v0,0,-30,-5,-53,-5v-50,0,-55,33,-55,88v0,55,9,87,55,87v20,0,53,-6,53,-6"},"\u00a6":{"d":"294,-540r25,0r0,256r-25,0r0,-256xm294,-213r25,0r0,256r-25,0r0,-256"},"\u00b1":{"d":"141,-82r308,0r0,24r-308,0r0,-24xm140,-238r0,-24r309,0r0,24r-309,0xm279,-134r0,-227r26,0r0,227r-26,0"},"\u00b0":{"d":"200,-406v0,-58,40,-98,98,-98v58,0,98,40,98,98v0,58,-40,97,-98,97v-58,0,-98,-39,-98,-97xm225,-406v0,45,28,74,73,74v45,0,75,-29,75,-74v0,-45,-30,-75,-75,-75v-45,0,-73,30,-73,75"},"\u00df":{"d":"179,0r-26,0r0,-383v0,-99,24,-128,111,-128v100,0,136,29,136,97v0,42,-15,60,-46,72v-40,16,-49,16,-49,32v0,9,0,10,60,46v68,42,97,53,97,83v0,127,-27,187,-172,187v-22,0,-56,-2,-56,-2r3,-25v0,0,41,3,53,3v132,0,144,-54,144,-163v0,-12,-22,-27,-87,-64v-66,-37,-70,-42,-70,-65v0,-37,21,-35,63,-53v32,-14,33,-19,33,-51v0,-54,-30,-73,-109,-73v-68,0,-85,19,-85,113r0,374"},"\u00de":{"d":"100,-504r0,504r-26,0r0,-504r26,0xm266,-96r-180,0r-5,-320r185,0v88,0,139,41,139,118r0,70v0,76,-43,132,-139,132xm379,-228r0,-69v0,-62,-40,-95,-113,-95r-173,0r0,272r173,0v78,0,113,-46,113,-108","w":451},"\u00ab":{"d":"279,-274r-98,77r98,84r0,29v0,0,-97,-81,-121,-99r0,-26r121,-93r0,28xm428,-274r-98,77r98,84r0,29v0,0,-97,-81,-121,-99r0,-26r121,-93r0,28"},"\u00b8":{"d":"344,77v0,35,-9,46,-44,46v-2,0,-12,-1,-22,-3r1,-18v6,1,20,1,21,1v19,0,20,-7,20,-26v0,-19,-1,-23,-20,-23r-18,0r5,-18v9,-2,11,-2,13,-2v35,0,44,8,44,43xm282,54r0,-55r24,0r0,50"},"#":{"d":"471,-137r-87,0r-2,137r-26,0v0,-45,3,-92,3,-137r-136,0v0,45,-3,92,-3,137r-26,0r3,-137r-86,0r1,-23r87,0r4,-163r-86,0r1,-23r86,0r3,-136r26,0v0,45,-3,91,-3,136r136,0v0,-45,3,-91,3,-136r26,0r-3,136r86,0r-1,23r-87,0r-4,163r86,0xm360,-160r4,-163r-135,0r-4,163r135,0"},"\u00d0":{"d":"244,0r-170,0r0,-504r170,0v104,0,167,47,167,172r0,164v0,100,-60,168,-167,168xm384,-168r0,-164v0,-105,-53,-148,-140,-148r-144,0r0,456r144,0v91,0,140,-61,140,-144xm-46,-233r0,-25r317,0r0,25r-317,0","w":468},"\u00a7":{"d":"440,-438r-2,23v0,0,-75,-7,-110,-7v-64,0,-101,23,-101,79v0,68,35,77,106,89v76,12,120,28,120,101v0,37,-20,81,-34,100r-17,-16v13,-14,26,-53,26,-82v0,-60,-40,-71,-100,-80v-81,-13,-126,-26,-126,-111v0,-76,48,-103,126,-103v45,0,112,7,112,7xm241,-268r15,13v-14,13,-29,49,-29,74v0,68,35,77,106,89v76,12,118,25,118,97v0,79,-45,114,-125,114v-43,0,-121,-10,-121,-10r2,-23v0,0,79,10,119,10v63,0,100,-25,100,-90v0,-60,-38,-66,-98,-75v-81,-13,-126,-26,-126,-111v0,-40,22,-71,39,-88"},"\u00e7":{"d":"184,-366v14,0,97,6,97,6r0,23v0,0,-84,-6,-97,-6v-80,0,-113,44,-113,122r0,78v0,81,37,126,113,126v17,0,97,-6,97,-6r0,23v0,0,-77,6,-97,6v-93,0,-139,-48,-139,-150r0,-77v0,-96,45,-145,139,-145xm217,77v0,35,-8,46,-43,46v-2,0,-13,-1,-23,-3r2,-18v6,1,19,1,20,1v19,0,20,-7,20,-26v0,-19,-1,-23,-20,-23r-17,0r5,-18v9,-2,11,-2,13,-2v35,0,43,8,43,43xm156,54r0,-55r23,0r0,50","w":316},"\u00c7":{"d":"361,-32r3,25v0,0,-93,13,-139,13v-104,0,-167,-47,-167,-172r0,-177v0,-100,60,-167,167,-167v51,0,139,15,139,15r-3,24v0,0,-92,-15,-136,-15v-91,0,-140,60,-140,143r0,177v0,105,53,148,140,148v40,0,136,-14,136,-14xm275,77v0,35,-9,46,-44,46v-2,0,-12,-1,-22,-3r1,-18v6,1,19,1,20,1v19,0,21,-7,21,-26v0,-19,-2,-23,-21,-23r-17,0r5,-18v9,-2,11,-2,13,-2v35,0,44,8,44,43xm213,54r0,-55r24,0r0,50","w":396},"\u00b5":{"d":"394,-360r25,0r0,360r-25,0r0,-30v-19,7,-94,37,-131,37v-81,0,-110,-85,-110,-160r0,-207r25,0r0,235v0,56,40,109,85,109v34,0,109,-30,131,-39r0,-305xm153,180r0,-541r25,0r0,541r-25,0"},"\u03bc":{"d":"394,-360r25,0r0,360r-25,0r0,-30v-19,7,-94,37,-131,37v-81,0,-110,-85,-110,-160r0,-207r25,0r0,235v0,56,40,109,85,109v34,0,109,-30,131,-39r0,-305xm153,180r0,-541r25,0r0,541r-25,0"},"\u00bb":{"d":"307,-274r0,-28r121,93r0,26v-24,18,-121,99,-121,99r0,-29r98,-84xm158,-274r0,-28r121,93r0,26v-24,18,-121,99,-121,99r0,-29r98,-84"},"\u00ba":{"d":"186,-474v55,0,82,22,82,97v0,75,-27,99,-82,99v-55,0,-82,-24,-82,-99v0,-75,27,-97,82,-97xm186,-301v41,0,57,-14,57,-76v0,-62,-16,-74,-57,-74v-41,0,-58,12,-58,74v0,62,17,76,58,76","w":371},"\u00fe":{"d":"166,-2r26,-334v0,0,87,-30,131,-30v59,0,110,42,110,117r0,115v0,52,-29,141,-111,141v-37,0,-156,-9,-156,-9xm192,-312r0,289v0,0,95,7,130,7v50,0,86,-54,86,-120r0,-113v0,-56,-40,-94,-85,-94v-40,0,-131,31,-131,31xm166,166r0,-691r26,0r0,691r-26,0"},"\u00dd":{"d":"208,-231r0,231r-26,0r0,-231r-164,-273r30,0r147,249r146,-249r30,0xm120,-602r138,-69r11,22r-139,67","w":388},"\u00a5":{"d":"208,-224r0,224r-26,0r0,-224r-164,-251r30,0r147,222r146,-222r30,0xm207,-238r0,-25r147,0r0,25r-147,0xm35,-131r0,-25r320,0r0,25r-320,0xm34,-238r0,-25r147,0r0,25r-147,0","w":388},"\u00aa":{"d":"61,-336r0,-23v0,0,95,-7,147,-7v56,0,95,44,95,102r0,236r55,11r-2,23r-70,-15v0,0,-126,15,-153,15v-60,0,-93,-53,-93,-107v0,-54,32,-96,84,-100r154,-13r0,-47v0,-46,-26,-82,-70,-82v-50,0,-147,7,-147,7xm278,-30r0,-161r-151,12v-42,4,-61,37,-61,77v0,42,25,85,68,85v23,0,144,-13,144,-13","w":368},"\u20ac":{"d":"352,-32r3,25v0,0,-94,13,-140,13v-104,0,-167,-47,-167,-172r0,-154v0,-100,60,-167,167,-167v51,0,140,15,140,15r-3,24v0,0,-93,-15,-137,-15v-91,0,-139,60,-139,143r0,154v0,105,52,148,139,148v40,0,137,-14,137,-14xm4,-307r297,0r0,24r-297,0r0,-24xm4,-201r297,1r0,24r-297,0r0,-25","w":381},"\u00a3":{"d":"333,-481r0,23v0,0,-62,-9,-86,-9v-49,0,-73,20,-73,106r0,69r131,0r0,23r-131,0r0,245r125,0r59,-12r5,23r-58,12r-223,1r0,-24r66,0r0,-245r-49,0r0,-23r49,0r0,-69v0,-105,34,-129,99,-129v27,0,86,9,86,9","w":362},"\u00f0":{"d":"48,-5r2,-25v0,0,100,12,123,12v92,0,146,-48,146,-148r0,-54v0,-1,-79,32,-135,32v-99,0,-150,-40,-150,-124r0,-31v0,-82,54,-139,155,-139v104,0,157,53,157,170r0,146v0,118,-64,172,-173,172v-27,0,-125,-11,-125,-11xm186,-212v52,0,133,-33,133,-33r0,-65v0,-106,-42,-148,-130,-148v-89,0,-128,46,-128,115r0,31v0,66,41,100,125,100","w":381},"\u00a0":{"w":169}}});
