/*!
 * The following copyright notice may not be removed under any circumstances.
 * 
 * Copyright:
 * Copyright (c) 1992 YOFonts. All rights reserved. Version 1.10. Designed by
 * Yasuhiro Yamaoka, 1992.
 * 
 * Trademark:
 * Eau Sans Book Lining is a trademark of YOFonts.
 * 
 * Description:
 * Copyright (c) 1992 YOFonts. All rights reserved. Version 1.10. Designed by
 * Yasuhiro Yamaoka, 1992.
 * 
 * Manufacturer:
 * YOFonts
 * 
 * Designer:
 * Yamaoka Yasuhiro
 * 
 * Vendor URL:
 * www.yoworks.com
 */
Cufon.registerFont({"w":186,"face":{"font-family":"009","font-weight":400,"font-stretch":"normal","units-per-em":"720","panose-1":"2 0 5 3 4 0 0 2 0 4","ascent":"576","descent":"-144","x-height":"8","bbox":"-45 -680 720 139.55","underline-thickness":"20.88","underline-position":"-121.68","unicode-range":"U+0020-U+0192"},"glyphs":{" ":{},"\u00f0":{"d":"365,-470v38,47,56,120,56,204v0,151,-48,270,-194,274v-131,4,-221,-111,-172,-239v24,-63,83,-107,172,-107v63,0,107,32,130,72v0,-66,-11,-121,-36,-160r-44,44r-33,-34r45,-46v-20,-14,-46,-23,-78,-23v-51,-1,-86,25,-111,49r-42,-41v35,-34,83,-64,153,-64v52,0,91,14,120,38r37,-37r34,33xm227,-48v73,0,117,-47,117,-118v0,-69,-43,-117,-116,-117v-74,0,-119,47,-119,117v0,71,45,118,118,118","w":469},"\u0141":{"d":"69,0r0,-226r-41,21r-20,-40r61,-30r0,-259r64,0r0,227r39,-20r20,40r-59,29r0,202r213,0r0,56r-277,0","w":346},"\u0142":{"d":"122,-256r0,256r-58,0r0,-228r-43,23r-20,-40r63,-31r0,-258r58,0r0,229r44,-22r19,40"},"\u0160":{"d":"231,-557r-64,0r-69,-123r56,0r45,77r45,-77r56,0xm211,-488v-110,0,-147,137,-44,167v95,28,198,52,204,174v9,179,-255,196,-344,91r41,-41v28,27,72,52,126,52v88,0,147,-100,86,-158v-75,-71,-244,-44,-243,-197v1,-123,148,-174,264,-126v27,12,50,28,70,48r-41,42v-27,-26,-68,-52,-119,-52","w":397},"\u0161":{"d":"194,-421r-64,0r-70,-123r57,0r44,77r46,-77r56,0xm253,-305v-29,-44,-159,-57,-159,20v0,54,68,56,110,72v55,21,90,49,92,112v3,132,-204,136,-269,59r37,-37v34,41,171,61,171,-22v0,-82,-147,-63,-182,-120v-12,-19,-21,-39,-21,-64v-3,-99,121,-132,206,-94v20,10,38,22,53,37","w":322},"\u00dd":{"d":"192,-557r-46,0r61,-123r72,0xm233,-246r0,246r-65,0r0,-246r-195,-288r77,0r151,231r150,-231r77,0","w":401},"\u00fd":{"d":"181,-421r-46,0r62,-123r72,0xm50,83v35,10,76,4,88,-26r21,-52r-154,-389r67,0r120,323r126,-323r66,0r-199,480v-19,36,-81,53,-135,37r0,-50","w":389},"\u00de":{"d":"405,-267v0,139,-123,160,-272,151r0,116r-64,0r0,-534r64,0r0,116v148,-9,272,14,272,151xm235,-172v64,2,103,-37,103,-94v0,-62,-39,-94,-103,-95r-102,0r0,189r102,0","w":426},"\u00fe":{"d":"246,-408v112,0,167,90,167,208v0,118,-55,208,-167,208v-58,0,-102,-27,-124,-66r0,191r-58,0r0,-667r58,0r0,196v22,-41,63,-70,124,-70xm238,-45v80,0,114,-69,114,-155v0,-86,-33,-155,-114,-155v-81,0,-116,68,-116,155v0,87,35,155,116,155","w":445},"\u017d":{"d":"219,-557r-64,0r-69,-123r56,0r44,77r45,-77r57,0xm27,0r0,-56r245,-421r-240,0r0,-57r309,0r0,57r-245,421r250,0r0,56r-319,0","w":373},"\u017e":{"d":"194,-421r-64,0r-69,-123r57,0r45,77r44,-77r57,0xm32,0r0,-50r187,-283r-182,0r0,-51r251,0r0,51r-186,280r191,0r0,53r-261,0","w":325},"\u00bd":{"d":"567,-259v0,108,-91,151,-152,222r162,0r0,37r-217,0r0,-34v63,-64,119,-110,154,-186v22,-47,0,-105,-54,-103v-36,0,-52,14,-71,32r-28,-27v25,-23,51,-44,99,-43v65,2,107,38,107,102xm114,27r-45,0r347,-587r46,0xm32,-490v35,-5,62,-26,84,-44r33,0r0,356r-41,0r0,-309v-15,14,-49,29,-76,33r0,-36","w":602},"\u00bc":{"d":"487,-89r0,89r-39,0r0,-89r-164,0r0,-36r164,-231r39,0r0,229r53,0r0,38r-53,0xm114,27r-45,0r347,-587r46,0xm32,-490v35,-5,62,-26,84,-44r33,0r0,356r-41,0r0,-309v-15,14,-49,29,-76,33r0,-36xm448,-295r-118,168r118,0r0,-168","w":573},"\u00b9":{"d":"32,-490v35,-5,62,-26,84,-44r33,0r0,356r-41,0r0,-309v-15,14,-49,29,-76,33r0,-36","w":234},"\u00be":{"d":"567,-89r0,89r-39,0r0,-89r-164,0r0,-36r164,-231r39,0r0,229r53,0r0,38r-53,0xm194,27r-45,0r347,-587r45,0xm192,-363v37,11,64,41,67,87v5,109,-167,135,-222,61r28,-27v34,51,154,39,150,-34v-3,-57,-51,-74,-116,-69r0,-37v59,6,109,-9,109,-59v0,-36,-29,-60,-71,-60v-36,0,-52,14,-71,33r-28,-27v22,-22,53,-43,99,-43v65,0,115,37,115,97v-1,43,-29,66,-60,78xm528,-295r-118,168r118,0r0,-168","w":653},"\u00b3":{"d":"192,-363v37,11,64,41,67,87v5,109,-167,135,-222,61r28,-27v34,51,154,39,150,-34v-3,-57,-51,-74,-116,-69r0,-37v59,6,109,-9,109,-59v0,-36,-29,-60,-71,-60v-36,0,-52,14,-71,33r-28,-27v22,-22,53,-43,99,-43v65,0,115,37,115,97v-1,43,-29,66,-60,78","w":303},"\u00b2":{"d":"127,-538v79,0,127,69,97,146v-27,70,-92,124,-142,177r162,0r0,37r-217,0r0,-33v32,-31,58,-58,78,-81v41,-47,84,-75,84,-145v0,-38,-23,-63,-62,-64v-36,0,-53,15,-72,33r-27,-27v24,-22,51,-43,99,-43","w":274},"\u00a6":{"d":"94,-307r0,-253r42,0r0,253r-42,0xm94,27r0,-254r42,0r0,254r-42,0","w":229},"\u00d7":{"d":"315,-112r-115,-116r-115,116r-35,-34r116,-115r-116,-116r35,-33r115,115r115,-115r34,33r-115,116r115,115","w":400},"!":{"d":"125,-133r-48,0r-13,-401r75,0xm67,0r0,-69r69,0r0,69r-69,0","w":202},"\"":{"d":"215,-395r-45,0r19,-139r72,0xm98,-395r-45,0r19,-139r72,0","w":303},"#":{"d":"310,-384r-27,129r77,0r0,45r-86,0r-21,103r-45,0r21,-103r-92,0r-21,103r-45,0r20,-103r-75,0r0,-45r84,0r27,-129r-77,0r0,-45r86,0r22,-105r44,0r-21,105r93,0r21,-105r45,0r-20,105r75,0r0,45r-85,0xm173,-384r-27,129r92,0r26,-129r-91,0","w":410},"$":{"d":"34,-387v0,-78,54,-118,129,-128r0,-45r37,0r0,44v57,2,104,28,133,60r-37,37v-23,-23,-54,-43,-96,-46r0,165v68,24,134,51,134,142v0,85,-55,129,-134,140r0,42r-37,0r0,-41v-60,-3,-109,-32,-139,-60r36,-37v23,23,62,40,103,45r0,-183v-68,-20,-129,-49,-129,-135xm163,-462v-56,6,-86,71,-55,119v10,14,33,24,55,31r0,-150xm200,-71v62,-6,98,-92,52,-139v-14,-14,-31,-24,-52,-30r0,169","w":357},"%":{"d":"472,-304v85,0,128,67,128,155v0,88,-43,154,-128,154v-85,0,-127,-66,-127,-154v0,-88,42,-155,127,-155xm163,27r-46,0r347,-587r45,0xm154,-539v84,0,128,66,128,155v0,88,-43,154,-128,154v-85,0,-127,-65,-127,-154v0,-90,43,-155,127,-155xm472,-37v106,0,107,-224,0,-224v-57,0,-78,53,-78,112v0,59,23,112,78,112xm154,-272v107,-2,106,-222,0,-224v-106,2,-105,223,0,224","w":626},"&":{"d":"454,-293v0,76,-13,135,-39,185r108,108r-79,0r-60,-60v-82,103,-350,95,-344,-78v3,-82,48,-120,106,-156v-35,-37,-74,-64,-71,-133v3,-71,51,-114,127,-114v76,0,126,42,126,114v0,76,-48,107,-95,139r139,137v15,-40,23,-85,23,-142r59,0xm198,-322v45,-28,74,-47,74,-105v0,-40,-28,-64,-70,-66v-62,-2,-87,72,-53,118v13,19,30,35,49,53xm102,-139v0,122,190,118,242,40r-162,-162v-48,30,-80,54,-80,122","w":490},"'":{"d":"96,-395r-46,0r19,-139r72,0"},"(":{"d":"109,-266v0,115,38,197,83,269r-48,24v-73,-104,-121,-297,-63,-454v18,-48,39,-93,63,-133r48,24v-44,75,-83,154,-83,270","w":239},")":{"d":"96,-560v72,104,121,296,63,454v-18,47,-39,93,-63,133r-48,-24v43,-74,82,-152,82,-269v0,-117,-37,-198,-82,-270","w":239},"*":{"d":"178,-402r56,77r-30,22r-56,-77r-57,77r-30,-22r57,-77r-91,-30r11,-35r91,30r0,-97r37,0r0,97r92,-30r11,35","w":295},"+":{"d":"224,-238r0,144r-48,0r0,-144r-144,0r0,-47r144,0r0,-144r48,0r0,144r144,0r0,47r-144,0","w":400},",":{"d":"90,69r-46,0r20,-138r72,0"},"-":{"d":"32,-176r0,-48r173,0r0,48r-173,0","w":237},".":{"d":"58,0r0,-69r70,0r0,69r-70,0"},"\/":{"d":"53,27r-39,0r146,-587r40,0","w":213},"0":{"d":"246,-541v142,0,194,126,194,275v0,148,-52,274,-194,274v-143,0,-196,-125,-196,-274v0,-150,53,-275,196,-275xm246,-48v102,0,128,-107,128,-218v0,-112,-24,-219,-128,-219v-104,0,-129,107,-129,219v0,112,26,218,129,218","w":490},"1":{"d":"109,-468v52,-8,95,-37,126,-66r50,0r0,534r-61,0r0,-463v-22,21,-73,44,-115,48r0,-53","w":490},"2":{"d":"219,-541v121,-2,191,104,146,219v-41,105,-138,185,-213,266r243,0r0,56r-326,0r0,-50r117,-121v60,-71,126,-114,126,-219v0,-58,-35,-94,-93,-95v-53,-1,-79,22,-107,49r-41,-41v34,-36,78,-63,148,-64","w":490},"3":{"d":"300,-279v56,18,98,62,102,130v8,163,-249,203,-334,93r41,-41v29,26,55,49,108,49v68,0,118,-35,118,-101v0,-84,-77,-109,-174,-102r0,-55v89,6,163,-10,163,-90v0,-55,-46,-90,-107,-89v-52,1,-79,23,-106,49r-41,-41v34,-33,79,-66,147,-64v102,2,174,47,174,145v0,65,-43,100,-91,117","w":490},"4":{"d":"353,-133r0,133r-59,0r0,-133r-246,0r0,-53r246,-348r59,0r0,345r79,0r0,56r-79,0xm294,-443r-177,254r177,0r0,-254","w":490},"5":{"d":"228,-338v110,4,176,65,184,172v12,174,-240,226,-334,110r42,-41v28,26,55,49,108,49v73,0,117,-47,117,-118v0,-69,-44,-115,-117,-117v-37,-1,-63,14,-83,28r-54,-27r0,-252r294,0r0,57r-232,0r0,157v21,-12,42,-19,75,-18","w":490},"6":{"d":"252,-338v110,0,184,65,184,172v0,110,-73,174,-184,174v-147,0,-193,-122,-194,-274v-2,-173,78,-301,258,-270v43,7,79,32,104,59r-41,41v-30,-40,-117,-67,-176,-34v-59,34,-81,110,-81,204v23,-40,67,-72,130,-72xm252,-48v73,0,117,-47,117,-118v0,-71,-45,-117,-117,-117v-73,0,-117,48,-117,117v0,71,44,118,117,118","w":490},"7":{"d":"418,-482v-100,133,-168,290,-210,482r-69,0v46,-186,106,-346,205,-477r-270,0r0,-57r344,0r0,52","w":490},"8":{"d":"329,-279v54,18,100,63,100,130v0,101,-78,157,-183,157v-106,0,-185,-55,-185,-157v0,-66,45,-113,100,-129v-47,-17,-89,-54,-89,-118v0,-98,72,-145,174,-145v101,0,172,48,172,145v0,64,-42,100,-89,117xm246,-306v61,0,106,-30,106,-90v0,-60,-45,-87,-106,-89v-61,-1,-107,34,-107,89v0,60,45,90,107,90xm246,-48v68,0,117,-36,117,-101v0,-65,-49,-102,-117,-102v-69,0,-118,36,-118,102v0,66,49,101,118,101","w":490},"9":{"d":"238,-541v149,0,195,125,195,275v0,171,-80,301,-258,268v-43,-8,-79,-33,-104,-58r41,-41v30,40,117,67,175,33v58,-34,82,-108,82,-202v-23,40,-69,72,-131,72v-109,0,-183,-67,-183,-174v0,-108,72,-173,183,-173xm239,-251v73,0,117,-47,117,-117v0,-71,-45,-117,-118,-117v-73,0,-117,47,-117,117v0,70,45,117,118,117","w":490},":":{"d":"58,-315r0,-69r70,0r0,69r-70,0xm58,0r0,-69r70,0r0,69r-70,0"},";":{"d":"58,-315r0,-69r70,0r0,69r-70,0xm90,69r-46,0r20,-138r72,0"},"<":{"d":"117,-64r-75,-149r75,-150r62,0r-75,150r75,149r-62,0","w":208},"=":{"d":"32,-304r0,-48r336,0r0,48r-336,0xm32,-171r0,-48r336,0r0,48r-336,0","w":400},">":{"d":"91,-64r-62,0r75,-149r-75,-150r62,0r75,150","w":208},"?":{"d":"168,-541v152,-10,209,183,101,267v-34,41,-86,64,-83,141r-58,0v-9,-141,133,-137,133,-264v0,-54,-38,-86,-93,-88v-52,-1,-81,22,-105,49r-41,-41v34,-36,77,-60,146,-64xm122,0r0,-69r70,0r0,69r-70,0","w":365},"@":{"d":"281,11v-165,0,-262,-113,-253,-285v7,-124,84,-206,179,-248v109,-48,261,-12,313,55v72,60,88,240,12,308v-31,46,-159,77,-155,-18v-23,67,-153,87,-199,23v-29,-41,-28,-126,0,-171v30,-47,71,-90,140,-90v44,0,76,21,88,55r9,-49r47,0r-39,220v-13,40,31,45,57,28v75,-48,70,-215,8,-279v-52,-54,-172,-84,-258,-43v-100,49,-184,164,-144,311v24,86,92,141,201,142v73,1,123,-29,164,-66r29,30v-48,42,-116,77,-199,77xm243,-164v98,42,180,-83,132,-178v-22,-44,-104,-35,-131,0v-42,34,-63,152,-1,178","w":607},"A":{"d":"397,0r-49,-136r-228,0r-48,136r-69,0r197,-534r69,0r198,534r-70,0xm235,-456r-95,264r189,0","w":469},"B":{"d":"288,-272v78,4,133,43,133,120v0,103,-68,152,-181,152r-171,0r0,-534r179,0v93,2,157,42,157,132v0,76,-49,119,-117,130xm230,-299v62,1,108,-33,108,-93v0,-59,-30,-86,-91,-85r-114,0r0,178r97,0xm240,-56v73,0,115,-30,115,-99v0,-58,-49,-88,-115,-88r-107,0r0,187r107,0","w":453},"C":{"d":"445,-56v-38,38,-90,64,-162,64v-197,1,-287,-190,-231,-385v35,-119,173,-200,322,-148v27,10,51,28,71,48r-41,41v-32,-31,-63,-49,-121,-49v-123,0,-181,91,-181,219v0,127,60,218,181,218v58,0,89,-18,121,-49","w":463},"D":{"d":"211,-534v168,6,271,95,271,268v0,172,-105,259,-271,266r-142,0r0,-534r142,0xm133,-56v175,13,283,-46,283,-210v0,-135,-74,-208,-205,-211r-78,0r0,421","w":517},"E":{"d":"69,0r0,-534r272,0r0,57r-208,0r0,178r203,0r0,56r-203,0r0,187r213,0r0,56r-277,0","w":389},"F":{"d":"133,-477r0,178r208,0r0,56r-208,0r0,243r-64,0r0,-534r277,0r0,57r-213,0","w":373},"G":{"d":"458,-35v-43,23,-104,43,-170,43v-201,2,-297,-189,-236,-385v31,-98,109,-162,236,-164v74,-1,131,27,168,64r-41,41v-30,-29,-67,-51,-127,-49v-126,4,-186,89,-186,219v0,129,62,218,186,218v39,0,80,-10,106,-23r0,-153r-125,0r0,-56r189,0r0,245","w":501},"H":{"d":"379,0r0,-243r-246,0r0,243r-64,0r0,-534r64,0r0,235r246,0r0,-235r64,0r0,534r-64,0","w":511},"I":{"d":"69,0r0,-534r64,0r0,534r-64,0","w":202},"J":{"d":"272,-133v13,152,-204,188,-269,76r40,-40v18,26,48,49,86,49v48,0,79,-34,79,-85r0,-401r64,0r0,401","w":341},"K":{"d":"351,0r-218,-261r0,261r-64,0r0,-534r64,0r0,251r211,-251r80,0r-227,262r235,272r-81,0","w":434},"L":{"d":"69,0r0,-534r64,0r0,478r213,0r0,56r-277,0","w":346},"M":{"d":"512,0r0,-458r-153,458r-73,0r-153,-458r0,458r-64,0r0,-534r101,0r153,458r152,-458r101,0r0,534r-64,0","w":645},"N":{"d":"357,1r-224,-449r0,448r-64,0r0,-534r91,0r224,448r0,-448r64,0r0,535r-91,0","w":517},"O":{"d":"272,8v-191,0,-278,-197,-220,-385v29,-94,100,-164,220,-164v157,0,237,116,237,275v0,159,-81,274,-237,274xm272,-48v115,0,171,-96,171,-218v0,-123,-54,-219,-171,-219v-117,0,-170,96,-170,219v0,123,55,218,170,218","w":544},"P":{"d":"235,-534v100,4,169,52,170,151v2,139,-124,160,-272,151r0,232r-64,0r0,-534r166,0xm235,-288v64,2,103,-37,103,-94v0,-62,-39,-94,-103,-95r-102,0r0,189r102,0","w":426},"Q":{"d":"442,-464v84,87,88,313,-1,396r93,46r-44,44r-96,-49v-32,21,-72,35,-122,35v-191,-1,-278,-197,-220,-385v29,-94,100,-162,220,-164v77,-1,130,36,170,77xm272,-48v115,0,171,-96,171,-218v0,-123,-54,-219,-171,-219v-117,0,-170,96,-170,219v0,123,55,218,170,218","w":544},"R":{"d":"405,-402v2,64,-42,116,-94,129v45,4,68,39,77,79r39,194r-68,0r-37,-183v-6,-35,-31,-60,-71,-60r-118,0r0,243r-64,0r0,-534r179,0v93,2,154,42,157,132xm230,-299v62,1,108,-33,108,-93v0,-59,-30,-86,-91,-85r-114,0r0,178r97,0","w":453},"S":{"d":"211,-488v-110,0,-147,137,-44,167v95,28,198,52,204,174v9,179,-255,196,-344,91r41,-41v28,27,72,52,126,52v88,0,147,-100,86,-158v-75,-71,-244,-44,-243,-197v1,-123,148,-174,264,-126v27,12,50,28,70,48r-41,42v-27,-26,-68,-52,-119,-52","w":397},"T":{"d":"232,-480r0,480r-64,0r0,-480r-163,0r0,-54r390,0r0,54r-163,0","w":400},"U":{"d":"443,-163v-2,116,-73,174,-187,174v-114,0,-187,-58,-187,-174r0,-371r64,0r0,371v2,76,48,118,123,118v76,0,123,-42,123,-118r0,-371r64,0r0,371","w":511},"V":{"d":"264,0r-75,0r-184,-534r70,0r152,457r152,-457r69,0","w":453},"W":{"d":"521,0r-77,0r-108,-431r-108,431r-79,0r-138,-534r69,0r109,436r108,-436r77,0r108,436r109,-436r69,0","w":671},"X":{"d":"383,0r-146,-225r-146,225r-77,0r187,-275r-177,-259r78,0r135,209r135,-209r77,0r-176,259r187,275r-77,0","w":473},"Y":{"d":"233,-246r0,246r-65,0r0,-246r-195,-288r77,0r151,231r150,-231r77,0","w":401},"Z":{"d":"27,0r0,-56r245,-421r-240,0r0,-57r309,0r0,57r-245,421r250,0r0,56r-319,0","w":373},"[":{"d":"64,27r0,-587r128,0r0,51r-70,0r0,485r70,0r0,51r-128,0","w":223},"\\":{"d":"160,27r-146,-587r39,0r147,587r-40,0","w":213},"]":{"d":"32,27r0,-51r70,0r0,-485r-70,0r0,-51r128,0r0,587r-128,0","w":223},"^":{"d":"165,-421r-45,-77r-45,77r-56,0r69,-123r64,0r69,123r-56,0","w":239},"_":{"d":"0,0r0,-42r261,0r0,42r-261,0","w":261},"`":{"d":"141,-421r-88,-123r72,0r61,123r-45,0","w":239},"a":{"d":"283,-266v1,-89,-143,-92,-184,-39r-38,-37v32,-29,72,-53,133,-53v87,0,147,44,147,129r0,266r-58,0r0,-64v-15,43,-61,74,-120,72v-71,-2,-121,-43,-121,-112v0,-112,115,-129,241,-123r0,-39xm176,-45v72,-4,109,-54,107,-131v-84,-2,-179,-5,-179,72v0,38,30,61,72,59","w":405},"b":{"d":"246,-392v109,0,167,85,167,200v0,115,-58,200,-167,200v-58,0,-102,-27,-124,-66r0,58r-58,0r0,-534r58,0r0,211v22,-40,65,-69,124,-69xm238,-45v77,0,114,-65,114,-147v0,-82,-35,-146,-114,-146v-79,0,-116,64,-116,146v0,83,38,147,116,147","w":445},"c":{"d":"330,-42v-25,28,-69,50,-117,50v-115,0,-181,-83,-181,-200v0,-118,67,-200,181,-200v48,0,92,22,117,50r-37,37v-18,-19,-45,-33,-80,-33v-81,3,-119,64,-119,146v0,84,39,147,119,147v34,0,62,-15,80,-34","w":352},"d":{"d":"200,-392v59,0,101,29,123,69r0,-211r59,0r0,534r-59,0r0,-58v-22,39,-65,66,-123,66v-109,0,-168,-85,-168,-200v0,-115,59,-200,168,-200xm208,-45v77,0,115,-65,115,-147v0,-82,-37,-146,-115,-146v-79,0,-114,64,-114,146v0,82,36,147,114,147","w":445},"e":{"d":"32,-192v-3,-134,97,-236,230,-187v71,26,102,103,103,205r-271,0v9,74,45,129,125,129v36,0,65,-11,88,-34r37,37v-33,32,-64,50,-125,50v-118,0,-185,-80,-187,-200xm299,-227v-6,-70,-61,-135,-137,-103v-37,16,-59,55,-66,103r203,0","w":394},"f":{"d":"91,-448v1,-75,72,-103,149,-86r0,52v-42,-15,-91,-4,-91,45r0,53r89,0r0,51r-89,0r0,333r-58,0r0,-333r-75,0r0,-51r75,0r0,-64","w":266},"g":{"d":"200,-392v57,-3,103,33,123,69r0,-61r59,0r0,357v12,168,-228,215,-329,113r38,-38v23,22,57,41,106,40v91,-3,137,-59,126,-163v-20,39,-64,75,-123,72v-107,-5,-168,-82,-168,-194v0,-112,61,-189,168,-195xm208,-56v76,0,115,-61,115,-141v0,-78,-38,-141,-115,-141v-77,0,-114,63,-114,141v0,81,38,141,114,141","w":445},"h":{"d":"246,-392v86,0,138,57,138,146r0,246r-59,0r0,-246v2,-59,-31,-92,-87,-92v-75,1,-116,61,-116,146r0,192r-58,0r0,-534r58,0r0,214v17,-43,62,-73,124,-72","w":447},"i":{"d":"61,-469r0,-65r64,0r0,65r-64,0xm64,0r0,-384r58,0r0,384r-58,0"},"j":{"d":"67,-469r0,-65r63,0r0,65r-63,0xm-22,83v44,11,91,4,91,-46r0,-421r59,0r0,432v1,76,-74,104,-150,85r0,-50","w":192},"k":{"d":"307,0r-185,-184r0,184r-58,0r0,-534r58,0r0,326r177,-176r80,0r-193,187r206,197r-85,0","w":383},"l":{"d":"64,0r0,-534r58,0r0,534r-58,0"},"m":{"d":"464,-392v82,0,124,60,123,146r0,246r-59,0r0,-246v0,-57,-19,-92,-74,-92v-131,0,-94,200,-99,338r-59,0r0,-246v0,-58,-20,-96,-75,-92v-130,9,-94,199,-99,338r-58,0r0,-384r58,0r0,64v19,-41,53,-72,110,-72v63,0,96,35,113,80v21,-46,58,-80,119,-80","w":650},"n":{"d":"246,-392v86,0,138,57,138,146r0,246r-59,0r0,-246v2,-59,-31,-92,-87,-92v-75,1,-116,61,-116,146r0,192r-58,0r0,-384r58,0r0,64v17,-43,62,-73,124,-72","w":447},"o":{"d":"208,-392v114,0,176,82,176,200v0,118,-62,200,-176,200v-114,0,-176,-82,-176,-200v0,-118,62,-200,176,-200xm208,-45v77,0,115,-65,115,-147v0,-82,-36,-146,-115,-146v-79,0,-114,65,-114,146v0,82,36,147,114,147","w":416},"p":{"d":"246,-392v109,0,167,85,167,200v0,115,-58,200,-167,200v-58,0,-102,-27,-124,-66r0,191r-58,0r0,-517r58,0r0,61v22,-40,65,-69,124,-69xm238,-45v77,0,114,-65,114,-147v0,-82,-35,-146,-114,-146v-79,0,-116,64,-116,146v0,83,38,147,116,147","w":445},"q":{"d":"200,-392v59,0,101,29,123,69r0,-61r59,0r0,517r-59,0r0,-191v-22,39,-65,66,-123,66v-109,0,-168,-85,-168,-200v0,-115,59,-200,168,-200xm208,-45v77,0,115,-65,115,-147v0,-82,-37,-146,-115,-146v-79,0,-114,64,-114,146v0,82,36,147,114,147","w":445},"r":{"d":"122,-192r0,192r-58,0r0,-384r58,0r0,59v24,-47,60,-67,129,-67r0,56v-85,0,-129,48,-129,144","w":266},"s":{"d":"253,-305v-29,-44,-159,-57,-159,20v0,54,68,56,110,72v55,21,90,49,92,112v3,132,-204,136,-269,59r37,-37v34,41,171,61,171,-22v0,-82,-147,-63,-182,-120v-12,-19,-21,-39,-21,-64v-3,-99,121,-132,206,-94v20,10,38,22,53,37","w":322},"t":{"d":"240,0v-74,17,-149,-10,-149,-86r0,-247r-75,0r0,-51r75,0r0,-109r58,0r0,109r89,0r0,51r-89,0r0,237v-4,48,48,58,91,46r0,50","w":266},"u":{"d":"211,-45v74,0,114,-62,114,-147r0,-192r59,0r0,384r-59,0r0,-64v-16,44,-61,72,-123,72v-87,0,-138,-58,-138,-147r0,-245r58,0r0,245v0,58,33,94,89,94","w":447},"v":{"d":"227,0r-69,0r-153,-384r67,0r120,323r126,-323r66,0","w":389},"w":{"d":"439,0r-74,0r-81,-290r-80,290r-75,0r-113,-384r65,0r85,315r88,-315r61,0r87,315r85,-315r65,0","w":568},"x":{"d":"292,0r-100,-150r-101,150r-69,0r136,-197r-130,-187r72,0r92,138r92,-138r72,0r-129,187r136,197r-71,0","w":383},"y":{"d":"50,83v35,10,76,4,88,-26r21,-52r-154,-389r67,0r120,323r126,-323r66,0r-199,480v-19,36,-81,53,-135,37r0,-50","w":389},"z":{"d":"32,0r0,-50r187,-283r-182,0r0,-51r251,0r0,51r-186,280r191,0r0,53r-261,0","w":325},"{":{"d":"163,-50v0,33,34,37,70,34r0,48v-76,7,-129,-20,-129,-85r0,-128v-1,-37,-31,-64,-74,-59r0,-53v43,6,74,-23,74,-59r0,-128v4,-66,53,-92,129,-85r0,47v-37,-3,-70,2,-70,36r0,130v-2,48,-32,78,-75,86v43,7,75,37,75,85r0,131","w":256},"|":{"d":"94,133r0,-667r42,0r0,667r-42,0","w":229},"}":{"d":"152,-352v0,37,32,66,75,59r0,53v-45,-5,-75,21,-75,59r0,128v-5,65,-53,93,-130,85r0,-48v37,3,71,-1,72,-34r0,-131v3,-47,31,-78,74,-85v-43,-8,-70,-38,-74,-86v-5,-60,25,-159,-36,-166r-36,0r0,-47v77,-7,130,18,130,85r0,128","w":256},"~":{"d":"287,-242v-26,29,-65,73,-120,49v-26,-12,-54,-58,-86,-26r-33,33r-29,-31v24,-38,100,-84,144,-31v13,16,44,25,62,8r32,-32","w":305},"\u00c4":{"d":"266,-592r0,-59r59,0r0,59r-59,0xm144,-592r0,-59r58,0r0,59r-58,0xm397,0r-49,-136r-228,0r-48,136r-69,0r197,-534r69,0r198,534r-70,0xm235,-456r-95,264r189,0","w":469},"\u00c5":{"d":"235,-672v30,0,58,28,58,59v0,31,-28,59,-58,59v-30,0,-59,-28,-59,-59v0,-31,29,-59,59,-59xm397,0r-49,-136r-228,0r-48,136r-69,0r197,-534r69,0r198,534r-70,0xm235,-573v21,0,39,-19,39,-40v0,-22,-17,-40,-39,-40v-22,0,-41,18,-41,40v0,21,20,40,41,40xm235,-456r-95,264r189,0","w":469},"\u00c7":{"d":"283,-48v58,0,89,-18,121,-49r41,41v-37,38,-86,62,-156,64r-10,20v24,4,53,22,51,52v-3,62,-106,70,-145,34r22,-22v16,20,76,22,76,-12v0,-22,-24,-28,-53,-28r23,-46v-174,-14,-255,-199,-201,-383v35,-119,173,-200,322,-148v27,10,51,28,71,48r-41,41v-32,-31,-63,-49,-121,-49v-123,0,-181,91,-181,219v0,127,60,218,181,218","w":463},"\u00c9":{"d":"206,-557r-46,0r61,-123r72,0xm69,0r0,-534r272,0r0,57r-208,0r0,178r203,0r0,56r-203,0r0,187r213,0r0,56r-277,0","w":389},"\u00d1":{"d":"270,-619v21,26,73,22,72,-18r42,0v5,78,-102,102,-144,47v-19,-25,-67,-6,-64,28r-43,0v-4,-70,94,-110,137,-57xm357,1r-224,-449r0,448r-64,0r0,-534r91,0r224,448r0,-448r64,0r0,535r-91,0","w":517},"\u00d6":{"d":"304,-592r0,-59r59,0r0,59r-59,0xm181,-592r0,-59r59,0r0,59r-59,0xm272,8v-191,0,-278,-197,-220,-385v29,-94,100,-164,220,-164v157,0,237,116,237,275v0,159,-81,274,-237,274xm272,-48v115,0,171,-96,171,-218v0,-123,-54,-219,-171,-219v-117,0,-170,96,-170,219v0,123,55,218,170,218","w":544},"\u00dc":{"d":"288,-592r0,-59r58,0r0,59r-58,0xm166,-592r0,-59r58,0r0,59r-58,0xm256,-45v76,0,123,-42,123,-118r0,-371r64,0r0,371v-2,116,-73,174,-187,174v-114,0,-187,-58,-187,-174r0,-371r64,0r0,371v2,76,48,118,123,118","w":511},"\u00e1":{"d":"195,-421r-46,0r62,-123r72,0xm283,-266v1,-89,-143,-92,-184,-39r-38,-37v32,-29,72,-53,133,-53v87,0,147,44,147,129r0,266r-58,0r0,-64v-15,43,-61,74,-120,72v-71,-2,-121,-43,-121,-112v0,-112,115,-129,241,-123r0,-39xm176,-45v72,-4,109,-54,107,-131v-84,-2,-179,-5,-179,72v0,38,30,61,72,59","w":405},"\u00e0":{"d":"204,-421r-87,-123r72,0r62,123r-47,0xm283,-266v1,-89,-143,-92,-184,-39r-38,-37v32,-29,72,-53,133,-53v87,0,147,44,147,129r0,266r-58,0r0,-64v-15,43,-61,74,-120,72v-71,-2,-121,-43,-121,-112v0,-112,115,-129,241,-123r0,-39xm176,-45v72,-4,109,-54,107,-131v-84,-2,-179,-5,-179,72v0,38,30,61,72,59","w":405},"\u00e2":{"d":"242,-421r-45,-77r-44,77r-57,0r70,-123r64,0r69,123r-57,0xm283,-266v1,-89,-143,-92,-184,-39r-38,-37v32,-29,72,-53,133,-53v87,0,147,44,147,129r0,266r-58,0r0,-64v-15,43,-61,74,-120,72v-71,-2,-121,-43,-121,-112v0,-112,115,-129,241,-123r0,-39xm176,-45v72,-4,109,-54,107,-131v-84,-2,-179,-5,-179,72v0,38,30,61,72,59","w":405},"\u00e4":{"d":"230,-472r0,-59r58,0r0,59r-58,0xm107,-472r0,-59r59,0r0,59r-59,0xm283,-266v1,-89,-143,-92,-184,-39r-38,-37v32,-29,72,-53,133,-53v87,0,147,44,147,129r0,266r-58,0r0,-64v-15,43,-61,74,-120,72v-71,-2,-121,-43,-121,-112v0,-112,115,-129,241,-123r0,-39xm176,-45v72,-4,109,-54,107,-131v-84,-2,-179,-5,-179,72v0,38,30,61,72,59","w":405},"\u00e3":{"d":"207,-509v17,30,73,21,72,-18r43,0v5,79,-102,103,-145,48v-20,-25,-65,-4,-63,27r-43,0v-5,-71,90,-105,136,-57xm283,-266v1,-89,-143,-92,-184,-39r-38,-37v32,-29,72,-53,133,-53v87,0,147,44,147,129r0,266r-58,0r0,-64v-15,43,-61,74,-120,72v-71,-2,-121,-43,-121,-112v0,-112,115,-129,241,-123r0,-39xm176,-45v72,-4,109,-54,107,-131v-84,-2,-179,-5,-179,72v0,38,30,61,72,59","w":405},"\u00e5":{"d":"192,-544v32,0,59,28,59,59v0,32,-27,58,-59,58v-33,0,-59,-26,-59,-58v0,-31,26,-59,59,-59xm283,-266v1,-89,-143,-92,-184,-39r-38,-37v32,-29,72,-53,133,-53v87,0,147,44,147,129r0,266r-58,0r0,-64v-15,43,-61,74,-120,72v-71,-2,-121,-43,-121,-112v0,-112,115,-129,241,-123r0,-39xm192,-446v21,0,40,-18,40,-39v0,-21,-19,-41,-40,-41v-21,0,-40,20,-40,41v0,21,19,39,40,39xm176,-45v72,-4,109,-54,107,-131v-84,-2,-179,-5,-179,72v0,38,30,61,72,59","w":405},"\u00e7":{"d":"330,-42v-26,26,-67,49,-113,50r-10,20v24,4,53,22,51,52v-3,62,-106,70,-145,34r22,-22v16,20,76,22,76,-12v0,-22,-24,-28,-53,-28r23,-47v-92,-20,-149,-88,-149,-197v0,-118,67,-200,181,-200v48,0,92,22,117,50r-37,37v-18,-19,-45,-33,-80,-33v-81,3,-119,64,-119,146v0,84,39,147,119,147v34,0,62,-15,80,-34","w":352},"\u00e9":{"d":"201,-421r-46,0r61,-123r72,0xm32,-192v-3,-134,97,-236,230,-187v71,26,102,103,103,205r-271,0v9,74,45,129,125,129v36,0,65,-11,88,-34r37,37v-33,32,-64,50,-125,50v-118,0,-185,-80,-187,-200xm299,-227v-6,-70,-61,-135,-137,-103v-37,16,-59,55,-66,103r203,0","w":394},"\u00e8":{"d":"202,-421r-88,-123r72,0r62,123r-46,0xm32,-192v-3,-134,97,-236,230,-187v71,26,102,103,103,205r-271,0v9,74,45,129,125,129v36,0,65,-11,88,-34r37,37v-33,32,-64,50,-125,50v-118,0,-185,-80,-187,-200xm299,-227v-6,-70,-61,-135,-137,-103v-37,16,-59,55,-66,103r203,0","w":394},"\u00ea":{"d":"242,-421r-45,-77r-44,77r-57,0r70,-123r64,0r69,123r-57,0xm32,-192v-3,-134,97,-236,230,-187v71,26,102,103,103,205r-271,0v9,74,45,129,125,129v36,0,65,-11,88,-34r37,37v-33,32,-64,50,-125,50v-118,0,-185,-80,-187,-200xm299,-227v-6,-70,-61,-135,-137,-103v-37,16,-59,55,-66,103r203,0","w":394},"\u00eb":{"d":"232,-472r0,-59r59,0r0,59r-59,0xm109,-472r0,-59r59,0r0,59r-59,0xm32,-192v-3,-134,97,-236,230,-187v71,26,102,103,103,205r-271,0v9,74,45,129,125,129v36,0,65,-11,88,-34r37,37v-33,32,-64,50,-125,50v-118,0,-185,-80,-187,-200xm299,-227v-6,-70,-61,-135,-137,-103v-37,16,-59,55,-66,103r203,0","w":394},"\u00ed":{"d":"104,-421r-46,0r62,-123r72,0xm64,0r0,-384r58,0r0,384r-58,0"},"\u00ec":{"d":"82,-421r-87,-123r72,0r61,123r-46,0xm64,0r0,-384r58,0r0,384r-58,0"},"\u00ee":{"d":"138,-421r-44,-77r-46,77r-56,0r69,-123r64,0r69,123r-56,0xm64,0r0,-384r58,0r0,384r-58,0"},"\u00ef":{"d":"125,-472r0,-59r59,0r0,59r-59,0xm3,-472r0,-59r58,0r0,59r-58,0xm64,0r0,-384r58,0r0,384r-58,0"},"\u00f1":{"d":"238,-509v16,31,74,21,72,-18r43,0v4,78,-103,104,-146,48v-20,-25,-65,-4,-63,27r-42,0v-5,-71,90,-105,136,-57xm246,-392v86,0,138,57,138,146r0,246r-59,0r0,-246v2,-59,-31,-92,-87,-92v-75,1,-116,61,-116,146r0,192r-58,0r0,-384r58,0r0,64v17,-43,62,-73,124,-72","w":447},"\u00f3":{"d":"208,-421r-46,0r61,-123r72,0xm208,-392v114,0,176,82,176,200v0,118,-62,200,-176,200v-114,0,-176,-82,-176,-200v0,-118,62,-200,176,-200xm208,-45v77,0,115,-65,115,-147v0,-82,-36,-146,-115,-146v-79,0,-114,65,-114,146v0,82,36,147,114,147","w":416},"\u00f2":{"d":"208,-421r-88,-123r72,0r62,123r-46,0xm208,-392v114,0,176,82,176,200v0,118,-62,200,-176,200v-114,0,-176,-82,-176,-200v0,-118,62,-200,176,-200xm208,-45v77,0,115,-65,115,-147v0,-82,-36,-146,-115,-146v-79,0,-114,65,-114,146v0,82,36,147,114,147","w":416},"\u00f4":{"d":"253,-421r-45,-77r-45,77r-56,0r69,-123r64,0r70,123r-57,0xm208,-392v114,0,176,82,176,200v0,118,-62,200,-176,200v-114,0,-176,-82,-176,-200v0,-118,62,-200,176,-200xm208,-45v77,0,115,-65,115,-147v0,-82,-36,-146,-115,-146v-79,0,-114,65,-114,146v0,82,36,147,114,147","w":416},"\u00f6":{"d":"240,-472r0,-59r59,0r0,59r-59,0xm117,-472r0,-59r59,0r0,59r-59,0xm208,-392v114,0,176,82,176,200v0,118,-62,200,-176,200v-114,0,-176,-82,-176,-200v0,-118,62,-200,176,-200xm208,-45v77,0,115,-65,115,-147v0,-82,-36,-146,-115,-146v-79,0,-114,65,-114,146v0,82,36,147,114,147","w":416},"\u00f5":{"d":"219,-509v17,30,73,21,72,-18r42,0v5,79,-102,103,-145,48v-19,-25,-66,-5,-63,27r-43,0v-3,-70,90,-106,137,-57xm208,-392v114,0,176,82,176,200v0,118,-62,200,-176,200v-114,0,-176,-82,-176,-200v0,-118,62,-200,176,-200xm208,-45v77,0,115,-65,115,-147v0,-82,-36,-146,-115,-146v-79,0,-114,65,-114,146v0,82,36,147,114,147","w":416},"\u00fa":{"d":"227,-421r-46,0r61,-123r72,0xm211,-45v74,0,114,-62,114,-147r0,-192r59,0r0,384r-59,0r0,-64v-16,44,-61,72,-123,72v-87,0,-138,-58,-138,-147r0,-245r58,0r0,245v0,58,33,94,89,94","w":447},"\u00f9":{"d":"207,-421r-87,-123r72,0r61,123r-46,0xm211,-45v74,0,114,-62,114,-147r0,-192r59,0r0,384r-59,0r0,-64v-16,44,-61,72,-123,72v-87,0,-138,-58,-138,-147r0,-245r58,0r0,245v0,58,33,94,89,94","w":447},"\u00fb":{"d":"269,-421r-45,-77r-45,77r-57,0r70,-123r64,0r69,123r-56,0xm211,-45v74,0,114,-62,114,-147r0,-192r59,0r0,384r-59,0r0,-64v-16,44,-61,72,-123,72v-87,0,-138,-58,-138,-147r0,-245r58,0r0,245v0,58,33,94,89,94","w":447},"\u00fc":{"d":"253,-472r0,-59r59,0r0,59r-59,0xm130,-472r0,-59r59,0r0,59r-59,0xm211,-45v74,0,114,-62,114,-147r0,-192r59,0r0,384r-59,0r0,-64v-16,44,-61,72,-123,72v-87,0,-138,-58,-138,-147r0,-245r58,0r0,245v0,58,33,94,89,94","w":447},"\u00b0":{"d":"128,-541v63,0,102,40,102,101v0,61,-41,102,-102,102v-61,0,-101,-41,-101,-102v0,-61,39,-101,101,-101xm128,-382v32,0,58,-26,58,-58v0,-32,-26,-59,-58,-59v-31,0,-59,28,-59,59v0,32,28,58,59,58","w":256},"\u00a2":{"d":"216,-120v33,0,60,-15,77,-34r37,37v-26,26,-67,49,-114,50r0,67r-32,0r0,-69v-92,-20,-152,-87,-152,-197v0,-111,59,-179,152,-198r0,-70r32,0r0,67v46,1,88,24,114,50r-37,38v-18,-19,-44,-33,-77,-34r0,293xm184,-410v-84,16,-118,158,-65,236v17,26,38,42,65,50r0,-286","w":352},"\u00a3":{"d":"88,-390v-12,-142,172,-194,267,-110v9,7,16,15,24,23r-41,41v-24,-24,-51,-50,-100,-49v-55,2,-89,41,-89,95r0,124r91,0r0,34r-91,0r0,176r228,0r0,56r-350,0r0,-56r61,0r0,-176r-61,0r0,-34r61,0r0,-124","w":391},"\u00a7":{"d":"258,-451v-28,-45,-159,-58,-159,19v0,54,69,57,111,73v55,22,92,49,92,111v0,33,-14,58,-33,77v18,18,27,42,27,72v2,99,-121,132,-206,94v-20,-10,-38,-22,-53,-37r38,-37v31,44,160,58,160,-20v0,-53,-69,-56,-111,-72v-55,-21,-90,-49,-92,-112v-1,-34,14,-58,33,-77v-18,-18,-28,-42,-28,-72v0,-96,119,-133,206,-94v20,9,38,23,53,37xm215,-202v47,-33,16,-89,-33,-105r-64,-21v-27,17,-33,56,-11,80v21,23,74,32,108,46","w":333},"\u00b6":{"d":"22,-387v0,-89,59,-147,146,-147r162,0r0,667r-56,0r0,-615r-50,0r0,615r-56,0r0,-373v-88,-4,-146,-59,-146,-147","w":394},"\u00df":{"d":"285,-281v54,15,99,63,99,129v0,119,-97,176,-221,155r0,-51v81,21,157,-21,155,-101v-2,-81,-60,-116,-155,-107r0,-51v83,8,139,-19,139,-91v0,-54,-33,-92,-89,-92v-56,0,-91,38,-91,92r0,398r-58,0r0,-396v4,-91,55,-145,149,-145v94,0,150,52,150,143v0,60,-36,99,-78,117","w":426},"\u00ae":{"d":"416,-513v117,47,201,192,142,350v-44,117,-198,201,-350,142v-116,-45,-201,-197,-142,-349v45,-117,198,-204,350,-143xm405,-485v-198,-78,-389,102,-311,311v39,105,175,178,311,126v104,-40,180,-176,126,-311v-23,-58,-67,-103,-126,-126xm426,-356v0,42,-28,77,-62,85v30,2,46,26,51,52r25,128r-45,0v-20,-57,1,-160,-71,-160r-78,0r0,160r-42,0r0,-352v102,0,222,-15,222,87xm382,-349v-1,-37,-17,-57,-60,-57r-76,0r0,118v67,3,138,2,136,-61","w":624},"\u00a9":{"d":"416,-513v117,47,201,192,142,350v-44,117,-198,201,-350,142v-116,-45,-201,-197,-142,-349v45,-117,198,-204,350,-143xm405,-485v-198,-78,-389,102,-311,311v39,105,175,178,311,126v104,-40,180,-176,126,-311v-23,-58,-67,-103,-126,-126xm315,-122v39,0,59,-12,80,-33r27,28v-25,24,-60,41,-107,41v-107,0,-162,-73,-164,-180v-3,-127,96,-212,224,-171v18,6,34,18,47,31r-27,27v-22,-20,-42,-32,-80,-32v-81,0,-120,62,-120,145v0,83,39,144,120,144","w":624},"\u00b4":{"d":"99,-421r-46,0r61,-123r72,0","w":239},"\u00a8":{"d":"136,-472r0,-59r58,0r0,59r-58,0xm14,-472r0,-59r58,0r0,59r-58,0","w":208},"\u00c6":{"d":"304,0r0,-136r-198,0r-79,136r-72,0r317,-534r304,0r0,57r-208,0r0,178r203,0r0,56r-203,0r0,187r213,0r0,56r-277,0xm304,-477r-166,285r166,0r0,-285","w":624},"\u00d8":{"d":"433,-474v46,47,76,118,76,208v0,159,-81,274,-237,274v-54,0,-97,-17,-131,-41r-39,60r-49,0r57,-86v-94,-78,-97,-314,-9,-405v40,-41,94,-77,171,-77v55,0,98,16,131,41r40,-60r47,0xm272,-48v170,1,214,-249,125,-372r-223,336v29,24,62,36,98,36xm369,-449v-35,-35,-108,-44,-163,-21v-106,44,-139,258,-59,356","w":544},"\u00b1":{"d":"224,-277r0,144r-48,0r0,-144r-144,0r0,-48r144,0r0,-144r48,0r0,144r144,0r0,48r-144,0xm32,-53r0,-49r336,0r0,49r-336,0","w":400},"\u00a5":{"d":"271,-281r108,0r0,35r-131,0r0,47r131,0r0,36r-131,0r0,163r-64,0r0,-163r-131,0r0,-36r131,0r0,-47r-131,0r0,-35r108,0r-172,-253r78,0r150,231r149,-231r78,0","w":432},"\u00b5":{"d":"325,-64v-15,69,-151,98,-203,42r0,155r-58,0r0,-517r58,0r0,245v0,58,33,94,89,94v74,0,114,-62,114,-147r0,-192r59,0r0,384r-59,0r0,-64","w":447},"\u03bc":{"d":"325,-64v-15,69,-151,98,-203,42r0,155r-58,0r0,-517r58,0r0,245v0,58,33,94,89,94v74,0,114,-62,114,-147r0,-192r59,0r0,384r-59,0r0,-64","w":447},"\u00aa":{"d":"141,-541v60,0,102,35,102,90r0,185r-41,0r0,-45v-10,29,-43,51,-83,50v-49,-2,-83,-29,-83,-77v0,-79,78,-90,166,-86v6,-49,-17,-79,-61,-79v-31,-1,-51,11,-67,25r-26,-26v22,-20,50,-37,93,-37xm128,-298v51,-2,76,-38,74,-91v-59,-2,-124,-2,-124,51v0,27,21,41,50,40","w":290},"\u00ba":{"d":"154,-539v79,0,122,56,122,139v0,83,-43,139,-122,139v-78,0,-122,-56,-122,-139v0,-83,44,-139,122,-139xm154,-298v50,0,79,-46,79,-102v0,-56,-28,-102,-79,-102v-50,0,-79,47,-79,102v0,56,29,102,79,102","w":308},"\u00e6":{"d":"283,-266v1,-89,-143,-92,-184,-39r-38,-37v32,-29,72,-53,133,-53v64,0,108,25,130,67v41,-73,184,-85,239,-13v30,39,51,93,50,167r-271,0v9,74,46,129,125,129v36,0,64,-11,87,-34r38,37v-33,32,-64,50,-125,50v-75,0,-127,-36,-156,-89v-22,50,-74,91,-148,89v-71,-2,-121,-43,-121,-112v0,-112,115,-129,241,-123r0,-39xm546,-227v-6,-70,-59,-135,-136,-103v-37,16,-58,55,-65,103r201,0xm176,-45v72,-4,109,-54,107,-131v-84,-2,-179,-5,-179,72v0,38,30,61,72,59","w":642},"\u00f8":{"d":"324,-346v35,33,62,86,60,154v-3,118,-62,200,-176,200v-33,0,-63,-8,-90,-25r-27,44r-41,0r41,-65v-34,-33,-61,-87,-59,-154v3,-118,62,-200,176,-200v33,0,63,9,89,26r28,-44r40,0xm148,-65v106,68,209,-57,167,-185v-5,-18,-12,-33,-22,-45xm208,-338v-116,-2,-142,168,-84,249r145,-231v-18,-12,-38,-18,-61,-18","w":416},"\u00bf":{"d":"174,-464r0,-70r69,0r0,70r-69,0xm197,-48v52,2,80,-24,106,-49r41,41v-36,35,-76,64,-147,64v-150,0,-210,-182,-101,-266v34,-41,86,-64,83,-142r59,0v6,140,-134,138,-134,264v0,53,38,86,93,88","w":365},"\u00a1":{"d":"67,-464r0,-70r69,0r0,70r-69,0xm64,0r13,-400r48,0r14,400r-75,0","w":202},"\u0192":{"d":"364,-482v-45,-17,-91,2,-100,45r-24,112r84,0r0,40r-93,0r-70,333v-14,67,-85,106,-168,85r11,-50v47,14,91,-4,100,-46r69,-322r-71,0r0,-40r79,0v16,-115,45,-243,194,-209","w":373},"\u00ab":{"d":"230,-64r-75,-149r75,-150r61,0r-74,150r74,149r-61,0xm117,-64r-75,-149r75,-150r62,0r-75,150r75,149r-62,0","w":319},"\u00bb":{"d":"202,-64r-61,0r74,-149r-74,-150r61,0r75,150xm91,-64r-62,0r75,-149r-75,-150r62,0r75,150","w":319},"\u00a0":{"w":202},"\u00c0":{"d":"247,-557r-88,-123r72,0r62,123r-46,0xm397,0r-49,-136r-228,0r-48,136r-69,0r197,-534r69,0r198,534r-70,0xm235,-456r-95,264r189,0","w":469},"\u00c3":{"d":"248,-619v21,27,73,22,72,-18r43,0v4,79,-102,102,-145,47v-19,-25,-65,-4,-63,28r-43,0v-5,-71,94,-109,136,-57xm397,0r-49,-136r-228,0r-48,136r-69,0r197,-534r69,0r198,534r-70,0xm235,-456r-95,264r189,0","w":469},"\u00d5":{"d":"283,-619v21,27,73,21,72,-18r42,0v4,79,-102,102,-145,47v-19,-24,-66,-5,-63,28r-43,0v-4,-70,95,-110,137,-57xm272,8v-191,0,-278,-197,-220,-385v29,-94,100,-164,220,-164v157,0,237,116,237,275v0,159,-81,274,-237,274xm272,-48v115,0,171,-96,171,-218v0,-123,-54,-219,-171,-219v-117,0,-170,96,-170,219v0,123,55,218,170,218","w":544},"\u0152":{"d":"176,-521v97,-45,224,-10,267,65r0,-78r272,0r0,57r-208,0r0,178r202,0r0,56r-202,0r0,187r213,0r0,56r-277,0r0,-77v-36,49,-91,85,-171,85v-191,-1,-277,-196,-220,-385v20,-67,64,-116,124,-144xm272,-48v115,0,171,-96,171,-218v0,-123,-54,-219,-171,-219v-117,0,-170,96,-170,219v0,123,55,218,170,218","w":762},"\u0153":{"d":"353,-307v27,-63,118,-107,200,-72v70,30,102,103,103,205r-272,0v10,72,46,129,125,129v41,0,66,-13,89,-34r36,37v-33,32,-63,50,-125,50v-74,-1,-127,-37,-155,-87v-27,50,-76,87,-146,87v-114,0,-176,-82,-176,-200v0,-118,62,-200,176,-200v66,0,121,38,145,85xm590,-227v-6,-70,-61,-135,-137,-103v-37,16,-59,55,-66,103r203,0xm208,-45v77,0,115,-65,115,-147v0,-82,-36,-146,-115,-146v-79,0,-114,65,-114,146v0,82,36,147,114,147","w":685},"\u00ff":{"d":"227,-472r0,-59r58,0r0,59r-58,0xm104,-472r0,-59r59,0r0,59r-59,0xm50,83v35,10,76,4,88,-26r21,-52r-154,-389r67,0r120,323r126,-323r66,0r-199,480v-19,36,-81,53,-135,37r0,-50","w":389},"\u0178":{"d":"233,-579r0,-58r58,0r0,58r-58,0xm110,-579r0,-58r58,0r0,58r-58,0xm233,-246r0,246r-65,0r0,-246r-195,-288r77,0r151,231r150,-231r77,0","w":401},"\u00b7":{"d":"58,-179r0,-69r70,0r0,69r-70,0"},"\u00c2":{"d":"279,-557r-44,-77r-45,77r-57,0r69,-123r64,0r70,123r-57,0xm397,0r-49,-136r-228,0r-48,136r-69,0r197,-534r69,0r198,534r-70,0xm235,-456r-95,264r189,0","w":469},"\u00ca":{"d":"253,-557r-45,-77r-45,77r-56,0r69,-123r64,0r70,123r-57,0xm69,0r0,-534r272,0r0,57r-208,0r0,178r203,0r0,56r-203,0r0,187r213,0r0,56r-277,0","w":389},"\u00c1":{"d":"219,-557r-45,0r61,-123r72,0xm397,0r-49,-136r-228,0r-48,136r-69,0r197,-534r69,0r198,534r-70,0xm235,-456r-95,264r189,0","w":469},"\u00cb":{"d":"243,-592r0,-59r59,0r0,59r-59,0xm120,-592r0,-59r59,0r0,59r-59,0xm69,0r0,-534r272,0r0,57r-208,0r0,178r203,0r0,56r-203,0r0,187r213,0r0,56r-277,0","w":389},"\u00c8":{"d":"221,-557r-88,-123r72,0r61,123r-45,0xm69,0r0,-534r272,0r0,57r-208,0r0,178r203,0r0,56r-203,0r0,187r213,0r0,56r-277,0","w":389},"\u00cd":{"d":"102,-557r-46,0r61,-123r72,0xm69,0r0,-534r64,0r0,534r-64,0","w":202},"\u00ce":{"d":"146,-557r-44,-77r-45,77r-57,0r69,-123r64,0r69,123r-56,0xm69,0r0,-534r64,0r0,534r-64,0","w":202},"\u00cf":{"d":"133,-592r0,-59r59,0r0,59r-59,0xm11,-592r0,-59r58,0r0,59r-58,0xm69,0r0,-534r64,0r0,534r-64,0","w":202},"\u00cc":{"d":"101,-557r-87,-123r72,0r61,123r-46,0xm69,0r0,-534r64,0r0,534r-64,0","w":202},"\u00d3":{"d":"294,-557r-46,0r62,-123r72,0xm272,8v-191,0,-278,-197,-220,-385v29,-94,100,-164,220,-164v157,0,237,116,237,275v0,159,-81,274,-237,274xm272,-48v115,0,171,-96,171,-218v0,-123,-54,-219,-171,-219v-117,0,-170,96,-170,219v0,123,55,218,170,218","w":544},"\u00d4":{"d":"317,-557r-45,-77r-44,77r-57,0r69,-123r64,0r70,123r-57,0xm272,8v-191,0,-278,-197,-220,-385v29,-94,100,-164,220,-164v157,0,237,116,237,275v0,159,-81,274,-237,274xm272,-48v115,0,171,-96,171,-218v0,-123,-54,-219,-171,-219v-117,0,-170,96,-170,219v0,123,55,218,170,218","w":544},"\u00d2":{"d":"249,-557r-88,-123r72,0r62,123r-46,0xm272,8v-191,0,-278,-197,-220,-385v29,-94,100,-164,220,-164v157,0,237,116,237,275v0,159,-81,274,-237,274xm272,-48v115,0,171,-96,171,-218v0,-123,-54,-219,-171,-219v-117,0,-170,96,-170,219v0,123,55,218,170,218","w":544},"\u00da":{"d":"264,-557r-45,0r61,-123r72,0xm256,-45v76,0,123,-42,123,-118r0,-371r64,0r0,371v-2,116,-73,174,-187,174v-114,0,-187,-58,-187,-174r0,-371r64,0r0,371v2,76,48,118,123,118","w":511},"\u00db":{"d":"301,-557r-45,-77r-45,77r-56,0r69,-123r64,0r69,123r-56,0xm256,-45v76,0,123,-42,123,-118r0,-371r64,0r0,371v-2,116,-73,174,-187,174v-114,0,-187,-58,-187,-174r0,-371r64,0r0,371v2,76,48,118,123,118","w":511},"\u00d9":{"d":"250,-557r-87,-123r72,0r61,123r-46,0xm256,-45v76,0,123,-42,123,-118r0,-371r64,0r0,371v-2,116,-73,174,-187,174v-114,0,-187,-58,-187,-174r0,-371r64,0r0,371v2,76,48,118,123,118","w":511},"\u0131":{"d":"64,0r0,-384r58,0r0,384r-58,0"},"\u00af":{"d":"40,-474r0,-46r160,0r0,46r-160,0","w":239},"\u00b8":{"d":"143,28v24,4,50,22,49,52v-2,63,-106,69,-144,34r21,-22v17,20,77,22,77,-12v0,-21,-24,-28,-52,-28r25,-52r37,0","w":250},"\u00d0":{"d":"211,-534v168,6,271,95,271,268v0,172,-105,259,-271,266r-142,0r0,-243r-55,0r0,-48r55,0r0,-243r142,0xm133,-56v175,13,283,-46,283,-210v0,-135,-74,-208,-205,-211r-78,0r0,186r56,0r0,48r-56,0r0,187","w":517}}});
/*!
 * The following copyright notice may not be removed under any circumstances.
 * 
 * Copyright:
 * Copyright (c) 1992 YOFonts. All rights reserved. Version 1.10. Designed by
 * Yasuhiro Yamaoka, 1992.
 * 
 * Trademark:
 * Eau Sans Book Oblique is a trademark of YOFonts.
 * 
 * Description:
 * Copyright (c) 1992 YOFonts. All rights reserved. Version 1.10. Designed by
 * Yasuhiro Yamaoka, 1992.
 * 
 * Manufacturer:
 * YOFonts
 * 
 * Designer:
 * Yamaoka Yasuhiro
 * 
 * Vendor URL:
 * www.yoworks.com
 */
Cufon.registerFont({"w":186,"face":{"font-family":"Eau","font-weight":400,"font-style":"oblique","font-stretch":"normal","units-per-em":"720","panose-1":"2 0 5 3 4 0 0 2 0 4","ascent":"576","descent":"-144","bbox":"-90 -680 788 141.113","underline-thickness":"20.88","underline-position":"-121.68","unicode-range":"U+0020-U+0192"},"glyphs":{" ":{},"\u00f0":{"d":"285,-541v50,0,87,13,112,38r45,-37r27,33r-45,37v61,129,-13,315,-76,399v-55,73,-216,111,-287,28v-39,-46,-31,-139,3,-188v40,-58,100,-107,194,-107v60,0,98,30,115,72v12,-58,16,-113,-2,-160r-53,44r-26,-34r54,-46v-55,-47,-157,-13,-194,26r-33,-41v41,-33,93,-64,166,-64xm149,-58v102,37,198,-39,191,-150v-5,-86,-139,-95,-188,-38v-52,33,-77,161,-3,188","w":469},"\u0141":{"d":"29,0r47,-226r-45,21r-12,-40r68,-30r55,-259r64,0r-48,227r43,-20r11,40r-64,29r-44,202r214,0r-12,56r-277,0","w":346},"\u0142":{"d":"136,-256r-54,256r-58,0r48,-228r-48,23r-12,-40r70,-31r55,-258r58,0r-48,229r47,-22r11,40"},"\u0160":{"d":"309,-557r-64,0r-43,-123r56,0r29,77r61,-77r56,0xm382,-436v-30,-52,-139,-68,-195,-24v-27,21,-55,74,-32,111v66,67,230,43,206,202v-22,152,-266,213,-363,91r50,-41v34,52,145,72,201,23v32,-28,68,-87,33,-129v-59,-70,-231,-41,-200,-197v22,-109,167,-179,290,-126v25,11,44,28,60,48","w":397},"\u0161":{"d":"243,-421r-64,0r-44,-123r57,0r28,77r62,-77r56,0xm277,-305v-23,-46,-129,-46,-155,0v-19,35,-1,63,34,73v64,18,134,40,120,131v-17,114,-214,148,-281,59r45,-37v23,33,104,51,146,20v22,-17,40,-47,23,-76v-46,-50,-178,-36,-157,-150v20,-109,207,-148,271,-57","w":322},"\u00dd":{"d":"270,-557r-46,0r87,-123r72,0xm244,-246r-52,246r-64,0r52,-246r-134,-288r77,0r102,231r198,-231r77,0","w":401},"\u00fd":{"d":"230,-421r-46,0r87,-123r72,0xm425,-384r-301,480v-25,32,-84,54,-143,37r11,-50v38,12,79,0,94,-26r31,-52r-71,-389r67,0r52,323r194,-323r66,0","w":389},"\u00de":{"d":"181,-418v132,-8,271,6,240,151v-20,94,-91,148,-202,151r-102,0r-24,116r-64,0r113,-534r64,0xm230,-172v80,-1,132,-51,126,-132v-6,-72,-107,-56,-187,-57r-40,189r101,0","w":426},"\u00fe":{"d":"153,-338v38,-72,198,-102,244,-15v68,129,-19,305,-128,347v-69,26,-157,8,-175,-52r-41,191r-58,0r142,-667r58,0xm207,-45v107,0,151,-106,152,-220v0,-72,-67,-108,-134,-79v-77,34,-133,160,-91,258v11,25,39,41,73,41","w":445},"\u017d":{"d":"297,-557r-64,0r-44,-123r57,0r28,77r61,-77r57,0xm-14,0r12,-56r335,-421r-241,0r12,-57r310,0r-12,57r-335,421r251,0r-12,56r-320,0","w":373},"\u017e":{"d":"243,-421r-64,0r-43,-123r57,0r28,77r61,-77r57,0xm-9,0r10,-50r248,-283r-181,0r10,-51r251,0r-11,51r-246,280r192,0r-11,53r-262,0","w":325},"\u00bd":{"d":"387,-318v49,-61,227,-62,194,59v-28,102,-128,154,-198,222r162,0r-8,37r-217,0r6,-34r96,-80v50,-48,96,-78,114,-145v10,-36,-10,-65,-48,-64v-37,0,-56,15,-78,32xm68,27r-45,0r472,-587r45,0xm105,-178r66,-309v-16,13,-55,29,-83,33r7,-36v38,-5,68,-26,94,-44r33,0r-76,356r-41,0","w":602},"\u00bc":{"d":"465,-89r-19,89r-38,0r18,-89r-164,0r7,-36r214,-231r39,0r-49,229r53,0r-8,38r-53,0xm68,27r-45,0r472,-587r45,0xm105,-178r66,-309v-16,13,-55,29,-83,33r7,-36v38,-5,68,-26,94,-44r33,0r-76,356r-41,0xm470,-295r-153,168r117,0","w":573},"\u00b9":{"d":"105,-178r66,-309v-16,13,-55,29,-83,33r7,-36v38,-5,68,-26,94,-44r33,0r-76,356r-41,0","w":234},"\u00be":{"d":"545,-89r-19,89r-39,0r19,-89r-164,0r7,-36r214,-231r39,0r-49,229r53,0r-8,38r-53,0xm148,27r-45,0r472,-587r45,0xm103,-495v34,-40,142,-65,185,-16v48,56,-3,137,-59,148v49,9,64,86,31,126v-29,63,-174,95,-218,22r34,-27v25,49,129,35,146,-9v30,-41,1,-101,-53,-94r-37,0r8,-37v62,6,112,-12,121,-59v16,-81,-104,-69,-136,-27xm550,-295r-153,168r117,0","w":653},"\u00b3":{"d":"103,-495v34,-40,142,-65,185,-16v48,56,-3,137,-59,148v49,9,64,86,31,126v-29,63,-174,95,-218,22r34,-27v25,49,129,35,146,-9v30,-41,1,-101,-53,-94r-37,0r8,-37v62,6,112,-12,121,-59v16,-81,-104,-69,-136,-27","w":303},"\u00b2":{"d":"93,-495v34,-38,139,-67,179,-13v42,56,-8,130,-43,165v-47,47,-81,79,-142,128r162,0r-8,37r-217,0r7,-33r95,-81v51,-48,98,-77,115,-145v9,-37,-11,-65,-49,-64v-37,0,-57,15,-78,33","w":274},"\u00a6":{"d":"118,-307r54,-253r43,0r-54,253r-43,0xm48,27r53,-254r42,0r-53,254r-42,0","w":229},"\u00d7":{"d":"299,-112r-91,-116r-140,116r-27,-34r140,-115r-91,-116r42,-33r90,115r140,-115r27,33r-140,116r91,115","w":400},"!":{"d":"113,-133r-48,0r72,-401r75,0xm27,0r14,-69r69,0r-14,69r-69,0","w":202},"\"":{"d":"258,-395r-45,0r49,-139r72,0xm141,-395r-45,0r49,-139r72,0","w":303},"#":{"d":"351,-384r-54,129r77,0r-10,45r-86,0r-43,103r-45,0r43,-103r-93,0r-42,103r-45,0r42,-103r-76,0r11,-45r84,0r54,-129r-77,0r10,-45r85,0r44,-105r45,0r-43,105r92,0r44,-105r45,0r-43,105r75,0r-9,45r-85,0xm214,-384r-54,129r92,0r53,-129r-91,0","w":410},"$":{"d":"310,-249v61,106,-32,223,-147,231r-9,42r-37,0r9,-41v-57,-2,-102,-30,-127,-60r45,-37v19,24,54,41,93,45r39,-183v-60,-18,-120,-50,-100,-135v18,-73,73,-117,155,-128r10,-45r38,0r-10,44v55,2,96,27,121,60r-46,37v-20,-24,-45,-43,-86,-46r-35,165v33,13,70,22,87,51xm220,-462v-56,9,-100,60,-79,119v5,15,28,24,48,31xm174,-71v61,-9,119,-78,82,-139v-9,-15,-26,-24,-46,-30","w":357},"%":{"d":"496,-304v107,-7,115,141,71,218v-33,57,-102,113,-184,80v-65,-26,-61,-146,-24,-206v29,-48,67,-88,137,-92xm117,27r-46,0r471,-587r46,0xm275,-527v64,27,60,147,24,206v-34,56,-103,114,-185,80v-64,-27,-58,-145,-23,-206v32,-57,103,-114,184,-80xm440,-37v61,0,86,-57,101,-112v19,-73,-22,-135,-87,-104v-52,25,-93,115,-64,184v9,22,27,32,50,32xm171,-272v63,0,88,-58,103,-112v20,-73,-23,-136,-89,-104v-51,25,-91,115,-63,185v9,22,26,31,49,31","w":626},"&":{"d":"475,-293v-16,74,-40,135,-78,185r85,108r-79,0r-47,-60v-82,93,-365,108,-327,-78v16,-79,72,-119,139,-156v-23,-30,-47,-53,-47,-98v0,-108,101,-173,209,-139v72,23,53,145,6,184v-25,21,-52,41,-82,59r109,137v25,-40,41,-86,53,-142r59,0xm226,-322v55,-33,97,-53,97,-128v0,-48,-81,-54,-111,-22v-34,23,-42,90,-9,121v6,9,14,18,23,29xm197,-261v-64,35,-111,68,-106,161v30,91,185,59,234,1","w":490},"'":{"d":"139,-395r-46,0r49,-139r72,0"},"(":{"d":"98,27v-49,-99,-50,-271,-4,-378v34,-79,79,-147,128,-209r44,24v-107,113,-205,338,-115,539","w":239},")":{"d":"174,-560v47,101,49,270,3,377v-35,80,-77,147,-127,210r-43,-24v105,-114,201,-337,115,-539","w":239},"*":{"d":"222,-402r40,77r-34,22r-40,-77r-73,77r-26,-22r74,-77r-85,-30r18,-35r85,30r21,-97r37,0r-20,97r97,-30r4,35","w":295},"+":{"d":"234,-238r-31,144r-48,0r31,-144r-144,0r10,-47r144,0r30,-144r48,0r-30,144r144,0r-10,47r-144,0","w":400},",":{"d":"35,69r-47,0r50,-138r72,0"},"-":{"d":"28,-176r11,-48r173,0r-10,48r-174,0","w":237},".":{"d":"18,0r14,-69r70,0r-14,69r-70,0"},"\/":{"d":"7,27r-39,0r270,-587r41,0","w":213},"0":{"d":"309,-541v184,-7,163,265,99,386v-44,83,-101,159,-216,163v-186,6,-162,-263,-98,-386v43,-84,101,-158,215,-163xm150,-357v-40,87,-81,309,54,309v139,0,186,-164,186,-309v0,-72,-24,-128,-93,-128v-82,0,-118,65,-147,128","w":469},"1":{"d":"99,0r98,-463v-32,23,-76,42,-126,48r12,-53v56,-9,102,-38,139,-66r51,0r-113,534r-61,0","w":277},"2":{"d":"102,-477v50,-57,211,-101,269,-20v61,85,-13,196,-65,249v-60,61,-144,133,-212,192r243,0r-12,56r-325,0r10,-50r143,-121v76,-72,145,-117,172,-219v14,-55,-17,-95,-73,-95v-55,0,-84,24,-117,49","w":400},"3":{"d":"99,-477v72,-87,343,-99,304,81v-13,61,-60,98,-115,117v73,14,93,123,48,189v-48,70,-173,128,-277,80v-24,-11,-39,-27,-50,-46r49,-41v30,57,138,59,191,18v35,-27,65,-96,30,-140v-24,-30,-78,-35,-136,-32r12,-55v93,7,166,-16,181,-90v12,-57,-28,-90,-87,-89v-54,1,-85,24,-117,49","w":410},"4":{"d":"330,-133r-28,133r-59,0r28,-133r-246,0r12,-53r319,-348r59,0r-74,345r79,0r-11,56r-79,0xm336,-443r-230,254r176,0","w":447},"5":{"d":"145,-320v62,-36,173,-13,201,34v41,43,28,137,-3,188v-46,76,-171,137,-278,88v-24,-11,-40,-27,-51,-46r50,-41v31,58,147,63,193,12v52,-35,74,-155,3,-188v-43,-20,-107,-4,-136,18r-48,-27r53,-252r294,0r-13,57r-232,0","w":410},"6":{"d":"128,-266v41,-74,208,-100,269,-20v36,47,31,139,-3,188v-40,58,-101,102,-194,106v-193,7,-159,-262,-99,-386v48,-98,132,-183,278,-158v40,7,71,32,92,59r-50,41v-25,-43,-109,-65,-168,-34v-70,37,-105,115,-125,204xm133,-85v65,83,216,12,221,-81v33,-113,-116,-148,-187,-80v-34,33,-73,111,-34,161","w":469},"7":{"d":"430,-482v-132,136,-231,294,-313,482r-69,0v84,-182,176,-344,306,-477r-270,0r12,-57r345,0","w":400},"8":{"d":"326,-279v71,16,99,128,47,189v-54,126,-385,143,-342,-59v13,-63,65,-111,127,-129v-41,-16,-76,-56,-64,-118v22,-108,145,-173,273,-135v52,16,90,60,74,135v-13,61,-60,98,-115,117xm161,-361v26,97,199,52,213,-35v15,-93,-110,-111,-171,-63v-26,21,-54,53,-42,98xm97,-111v34,119,262,56,235,-76v-15,-74,-139,-78,-189,-32v-27,24,-60,58,-46,108","w":447},"9":{"d":"301,-541v194,-7,149,258,99,386v-50,129,-258,228,-370,99r50,-41v25,44,111,65,169,33v68,-37,105,-113,124,-202v-43,74,-208,99,-269,19v-36,-47,-32,-139,3,-188v41,-57,99,-103,194,-106xm191,-261v102,38,199,-37,192,-150v-6,-86,-140,-92,-188,-38v-51,33,-78,161,-4,188","w":469},":":{"d":"84,-315r15,-69r70,0r-15,69r-70,0xm18,0r14,-69r70,0r-14,69r-70,0"},";":{"d":"84,-315r15,-69r70,0r-15,69r-70,0xm35,69r-47,0r50,-138r72,0"},"<":{"d":"90,-64r-43,-149r107,-150r62,0r-107,150r43,149r-62,0","w":208},"=":{"d":"55,-304r11,-48r336,0r-10,48r-337,0xm27,-171r10,-48r337,0r-10,48r-337,0","w":400},">":{"d":"63,-64r-62,0r107,-149r-42,-150r61,0r43,150","w":208},"?":{"d":"82,-477v71,-90,324,-94,290,80v-25,130,-173,136,-198,264r-58,0v19,-125,132,-141,180,-233v27,-52,1,-119,-66,-119v-55,0,-86,25,-116,49xm82,0r14,-69r70,0r-14,69r-70,0","w":365},"@":{"d":"281,11v-165,0,-262,-113,-253,-285v7,-124,84,-206,179,-248v109,-48,261,-12,313,55v72,60,88,240,12,308v-31,46,-159,77,-155,-18v-23,67,-153,87,-199,23v-29,-41,-28,-126,0,-171v30,-47,71,-90,140,-90v44,0,76,21,88,55r9,-49r47,0r-39,220v-13,40,31,45,57,28v75,-48,70,-215,8,-279v-52,-54,-172,-84,-258,-43v-100,49,-184,164,-144,311v24,86,92,141,201,142v73,1,123,-29,164,-66r29,30v-48,42,-116,77,-199,77xm243,-164v98,42,180,-83,132,-178v-22,-44,-104,-35,-131,0v-42,34,-63,152,-1,178","w":607},"A":{"d":"357,0r-20,-136r-228,0r-77,136r-69,0r310,-534r69,0r84,534r-69,0xm291,-456r-151,264r189,0","w":469},"B":{"d":"357,-262v95,34,53,185,-12,221v-63,56,-200,38,-316,41r113,-534v134,8,336,-42,308,132v-11,72,-69,118,-145,130v20,0,37,4,52,10xm253,-299v81,-2,131,-46,131,-127v0,-74,-116,-45,-190,-51r-38,178r97,0xm211,-56v77,0,123,-35,136,-99v12,-60,-31,-88,-96,-88r-107,0r-40,187r107,0","w":453},"C":{"d":"416,-56v-57,55,-183,86,-273,43v-80,-38,-121,-134,-93,-253v36,-151,128,-268,307,-275v69,-3,119,24,148,64r-49,41v-33,-50,-119,-63,-186,-34v-99,44,-169,149,-158,294v6,78,57,128,141,128v61,0,92,-19,131,-49","w":463},"D":{"d":"461,-467v69,76,41,245,-10,318v-59,85,-147,149,-280,149r-142,0r113,-534v128,-1,254,-4,319,67xm104,-56v191,14,296,-62,328,-210v28,-131,-33,-211,-161,-211r-77,0","w":517},"E":{"d":"29,0r113,-534r272,0r-12,57r-208,0r-38,178r203,0r-12,56r-203,0r-40,187r214,0r-12,56r-277,0","w":389},"F":{"d":"194,-477r-38,178r208,0r-12,56r-208,0r-51,243r-64,0r113,-534r277,0r-12,57r-213,0","w":373},"G":{"d":"467,-436v-32,-50,-126,-63,-195,-34v-101,43,-166,149,-160,294v5,120,149,155,257,105r32,-153r-125,0r12,-56r189,0r-52,245v-69,36,-198,62,-281,22v-81,-39,-122,-134,-94,-253v36,-153,130,-269,312,-275v72,-2,123,25,154,64","w":501},"H":{"d":"338,0r52,-243r-246,0r-51,243r-64,0r113,-534r64,0r-50,235r246,0r49,-235r65,0r-114,534r-64,0","w":511},"I":{"d":"29,0r113,-534r64,0r-113,534r-64,0","w":202},"J":{"d":"23,-97v17,48,96,66,138,26v17,-16,29,-35,35,-62r85,-401r64,0r-85,401v-20,83,-77,144,-174,144v-57,0,-91,-29,-112,-68","w":341},"K":{"d":"310,0r-162,-261r-55,261r-64,0r113,-534r64,0r-53,251r264,-251r80,0r-282,262r177,272r-82,0","w":434},"L":{"d":"29,0r113,-534r64,0r-102,478r214,0r-12,56r-277,0","w":346},"M":{"d":"472,0r97,-458r-250,458r-73,0r-56,-458r-97,458r-64,0r113,-534r101,0r55,458r250,-458r101,0r-113,534r-64,0","w":645},"N":{"d":"316,1r-128,-449r-95,448r-64,0r113,-534r91,0r128,448r95,-448r65,0r-114,535r-91,0","w":517},"O":{"d":"500,-464v80,127,-2,324,-83,395v-62,55,-183,105,-279,56v-77,-39,-117,-137,-88,-253v36,-148,123,-267,296,-275v73,-4,125,31,154,77xm242,-48v127,0,192,-104,217,-218v26,-116,-13,-219,-124,-219v-95,0,-146,63,-185,128v-36,59,-59,182,-16,249v22,35,55,60,108,60","w":544},"P":{"d":"424,-490v55,67,8,187,-46,216v-50,44,-141,45,-236,42r-49,232r-64,0r113,-534v104,4,231,-19,282,44xm256,-288v79,-1,132,-50,124,-132v-7,-71,-107,-56,-186,-57r-40,189r102,0","w":426},"Q":{"d":"359,-27v-55,35,-156,48,-221,14v-77,-40,-117,-137,-88,-253v36,-148,123,-275,296,-275v147,0,212,121,179,275v-17,81,-58,151,-110,198r83,46r-53,44xm242,-48v127,0,192,-104,217,-218v26,-116,-13,-219,-124,-219v-95,0,-146,63,-185,128v-36,59,-59,182,-16,249v22,35,55,60,108,60","w":544},"R":{"d":"328,-273v42,3,61,36,61,79r-2,194r-69,0r2,-183v8,-82,-101,-56,-176,-60r-51,243r-64,0r113,-534v134,8,335,-43,308,132v-9,61,-63,115,-122,129xm253,-299v81,-2,131,-46,131,-127v0,-74,-116,-45,-190,-51r-38,178r97,0","w":453},"S":{"d":"382,-436v-30,-52,-139,-68,-195,-24v-27,21,-55,74,-32,111v66,67,230,43,206,202v-22,152,-266,213,-363,91r50,-41v34,52,145,72,201,23v32,-28,68,-87,33,-129v-59,-70,-231,-41,-200,-197v22,-109,167,-179,290,-126v25,11,44,28,60,48","w":397},"T":{"d":"293,-480r-101,480r-65,0r102,-480r-163,0r12,-54r389,0r-11,54r-163,0","w":400},"U":{"d":"437,-163v-25,126,-145,204,-294,164v-63,-17,-99,-74,-80,-164r79,-371r64,0r-79,371v-33,117,115,146,192,88v26,-20,45,-51,54,-88r78,-371r65,0","w":511},"V":{"d":"224,0r-75,0r-71,-534r70,0r54,457r249,-457r70,0","w":453},"W":{"d":"481,0r-78,0r-16,-431r-200,431r-78,0r-25,-534r69,0r15,436r202,-436r76,0r16,436r202,-436r69,0","w":671},"X":{"d":"343,0r-99,-225r-194,225r-77,0r246,-275r-123,-259r78,0r91,209r179,-209r78,0r-231,259r129,275r-77,0","w":473},"Y":{"d":"244,-246r-52,246r-64,0r52,-246r-134,-288r77,0r102,231r198,-231r77,0","w":401},"Z":{"d":"-14,0r12,-56r335,-421r-241,0r12,-57r310,0r-12,57r-335,421r251,0r-12,56r-320,0","w":373},"[":{"d":"18,27r125,-587r128,0r-11,51r-70,0r-103,485r70,0r-11,51r-128,0","w":223},"\\":{"d":"114,27r-22,-587r40,0r22,587r-40,0","w":213},"]":{"d":"-14,27r10,-51r70,0r103,-485r-70,0r11,-51r128,0r-124,587r-128,0","w":223},"^":{"d":"214,-421r-28,-77r-62,77r-56,0r95,-123r64,0r43,123r-56,0","w":239},"_":{"d":"-40,0r8,-42r262,0r-9,42r-261,0","w":261},"`":{"d":"190,-421r-62,-123r72,0r35,123r-45,0","w":239},"a":{"d":"93,-342v67,-75,297,-81,264,76r-56,266r-58,0r13,-64v-29,76,-217,110,-232,4v-19,-137,114,-176,266,-167v15,-40,13,-96,-29,-108v-52,-14,-110,4,-139,30xm279,-176v-89,-4,-182,0,-194,72v-14,86,114,61,150,18v21,-25,39,-52,44,-90","w":405},"b":{"d":"150,-323v40,-70,192,-98,243,-15v57,92,0,244,-62,292v-34,27,-74,54,-128,54v-53,0,-95,-24,-109,-66r-12,58r-58,0r113,-534r58,0xm207,-45v102,0,151,-97,149,-207v-1,-68,-68,-105,-135,-76v-73,32,-133,148,-88,242v12,25,39,41,74,41","w":445},"c":{"d":"299,-42v-56,59,-196,68,-245,-6v-39,-58,-27,-168,9,-225v45,-72,142,-149,252,-106v20,8,35,21,47,37r-45,37v-33,-51,-136,-36,-167,8v-69,50,-99,252,32,252v35,-1,66,-15,87,-34","w":352},"d":{"d":"176,-378v69,-30,158,-7,175,55r44,-211r59,0r-113,534r-59,0r12,-58v-40,69,-190,91,-242,12v-38,-58,-25,-173,11,-229v29,-44,65,-82,113,-103xm177,-45v102,0,153,-97,150,-207v-2,-67,-69,-105,-136,-76v-73,31,-130,149,-87,242v12,25,38,41,73,41","w":445},"e":{"d":"312,-42v-57,63,-214,72,-257,-6v-79,-143,25,-344,188,-344v111,0,147,101,118,218r-271,0v-8,77,23,129,98,129v41,0,69,-14,95,-34xm306,-227v10,-78,-42,-133,-114,-103v-43,18,-73,57,-88,103r202,0","w":394},"f":{"d":"302,-482v-45,-17,-91,3,-100,45r-12,53r89,0r-11,51r-89,0r-70,333r-59,0r71,-333r-75,0r11,-51r75,0v8,-100,63,-176,180,-150","w":266},"g":{"d":"176,-378v69,-32,161,-5,175,55r13,-61r59,0r-77,357v-20,124,-165,204,-303,152v-22,-8,-37,-24,-49,-39r46,-38v31,48,145,48,193,9v37,-30,55,-77,65,-132v-38,71,-188,102,-244,19v-38,-57,-25,-166,10,-221v28,-44,65,-80,112,-101xm179,-56v98,0,152,-88,148,-197v-3,-65,-68,-104,-135,-75v-71,31,-130,142,-87,232v12,24,38,40,74,40","w":445},"h":{"d":"150,-320v27,-69,180,-103,231,-33v19,26,24,61,14,107r-52,246r-58,0r52,-246v30,-106,-103,-112,-159,-55v-63,63,-69,199,-96,301r-58,0r113,-534r58,0","w":447},"i":{"d":"120,-469r14,-65r64,0r-14,65r-64,0xm24,0r81,-384r58,0r-81,384r-58,0"},"j":{"d":"126,-469r14,-65r63,0r-14,65r-63,0xm-79,83v48,13,90,-2,99,-46r90,-421r59,0r-92,432v-13,68,-85,105,-167,85","w":192},"k":{"d":"266,0r-145,-184r-39,184r-58,0r113,-534r58,0r-69,326r214,-176r80,0r-232,187r163,197r-85,0","w":383},"l":{"d":"24,0r113,-534r58,0r-113,534r-58,0"},"m":{"d":"371,-312v31,-44,71,-79,135,-80v80,-1,111,57,92,146r-52,246r-59,0r52,-246v36,-102,-80,-112,-130,-55v-60,69,-67,198,-94,301r-59,0r51,-246v36,-102,-79,-112,-130,-55v-61,68,-68,198,-95,301r-58,0r81,-384r58,0r-13,64v25,-39,65,-71,124,-72v59,0,88,32,97,80","w":650},"n":{"d":"150,-320v27,-69,180,-103,231,-33v19,26,24,61,14,107r-52,246r-58,0r52,-246v30,-106,-103,-112,-159,-55v-63,63,-69,199,-96,301r-58,0r81,-384r58,0","w":447},"o":{"d":"301,-46v-54,60,-196,75,-248,0v-40,-57,-24,-172,10,-229v45,-73,143,-148,252,-103v123,51,70,280,-14,332xm177,-45v102,0,152,-97,150,-207v-1,-68,-68,-104,-135,-76v-74,31,-132,149,-88,242v12,25,38,41,73,41","w":416},"p":{"d":"150,-323v40,-70,192,-98,243,-15v57,92,0,244,-62,292v-34,27,-74,54,-128,54v-53,0,-95,-24,-109,-66r-41,191r-58,0r110,-517r58,0xm207,-45v102,0,151,-97,149,-207v-1,-68,-68,-105,-135,-76v-73,32,-133,148,-88,242v12,25,39,41,74,41","w":445},"q":{"d":"176,-378v69,-30,158,-7,175,55r13,-61r59,0r-111,517r-59,0r41,-191v-40,69,-190,91,-242,12v-38,-58,-25,-173,11,-229v29,-44,65,-82,113,-103xm177,-45v102,0,153,-97,150,-207v-2,-67,-69,-105,-136,-76v-73,31,-130,149,-87,242v12,25,38,41,73,41","w":445},"r":{"d":"122,-192r-40,192r-58,0r81,-384r58,0r-12,59v31,-45,71,-66,142,-67r-11,56v-85,0,-140,48,-160,144","w":266},"s":{"d":"277,-305v-23,-46,-129,-46,-155,0v-19,35,-1,63,34,73v64,18,134,40,120,131v-17,114,-214,148,-281,59r45,-37v23,33,104,51,146,20v22,-17,40,-47,23,-76v-46,-50,-178,-36,-157,-150v20,-109,207,-148,271,-57","w":322},"t":{"d":"199,0v-68,16,-149,-4,-131,-86r53,-247r-75,0r11,-51r75,0r23,-109r58,0r-23,109r89,0r-11,51r-89,0r-50,237v-15,50,37,58,81,46","w":266},"u":{"d":"298,-64v-27,69,-180,103,-231,33v-19,-26,-24,-62,-14,-108r52,-245r58,0r-51,245v-30,107,101,115,158,57v63,-64,68,-200,96,-302r59,0r-82,384r-58,0","w":447},"v":{"d":"186,0r-69,0r-71,-384r67,0r52,323r194,-323r66,0","w":389},"w":{"d":"399,0r-74,0r-20,-290r-142,290r-74,0r-32,-384r65,0r18,315r155,-315r61,0r21,315r151,-315r65,0","w":568},"x":{"d":"252,0r-68,-150r-133,150r-70,0r178,-197r-90,-187r72,0r62,138r122,-138r72,0r-169,187r95,197r-71,0","w":383},"y":{"d":"425,-384r-301,480v-25,32,-84,54,-143,37r11,-50v38,12,79,0,94,-26r31,-52r-71,-389r67,0r52,323r194,-323r66,0","w":389},"z":{"d":"-9,0r10,-50r248,-283r-181,0r10,-51r251,0r-11,51r-246,280r192,0r-11,53r-262,0","w":325},"{":{"d":"186,32v-68,6,-128,-13,-112,-85r28,-128v9,-38,-19,-65,-62,-59r11,-53v174,7,14,-293,261,-272r-10,47v-39,-4,-70,4,-77,36v-21,90,-22,202,-121,216v40,6,68,37,57,85r-29,131v-6,33,29,37,64,34","w":256},"|":{"d":"24,133r142,-667r43,0r-142,667r-43,0","w":229},"}":{"d":"237,-240v-173,-8,-17,295,-262,272r10,-48v38,3,70,-2,78,-34v21,-90,21,-203,121,-216v-39,-7,-68,-38,-57,-86r29,-130v6,-34,-29,-39,-65,-36r11,-47v67,-6,126,13,111,85r-27,128v-7,38,19,65,62,59","w":256},"~":{"d":"298,-242v-33,38,-118,87,-159,23v-36,-31,-70,17,-91,33r-24,-31v32,-35,118,-88,158,-23v37,29,71,-17,92,-32","w":305},"\u00c4":{"d":"351,-592r13,-59r59,0r-13,59r-59,0xm229,-592r13,-59r58,0r-13,59r-58,0xm357,0r-20,-136r-228,0r-77,136r-69,0r310,-534r69,0r84,534r-69,0xm291,-456r-151,264r189,0","w":469},"\u00c5":{"d":"337,-672v52,-2,60,78,20,100v-19,19,-65,27,-83,0v-30,-44,17,-98,63,-100xm357,0r-20,-136r-228,0r-77,136r-69,0r310,-534r69,0r84,534r-69,0xm290,-585v30,35,96,-14,69,-57v-34,-33,-97,16,-69,57xm291,-456r-151,264r189,0","w":469},"\u00c7":{"d":"135,-108v42,78,192,73,249,11r32,41v-44,37,-96,61,-169,64r-14,20v49,1,49,73,10,90v-30,23,-99,25,-123,-4r26,-22v23,33,107,2,71,-32v-6,-6,-20,-8,-38,-8r32,-46v-130,-12,-195,-126,-161,-272v35,-152,128,-268,307,-275v69,-3,119,24,148,64r-49,41v-33,-50,-119,-63,-186,-34v-99,44,-167,149,-158,294v2,27,12,48,23,68","w":463},"\u00c9":{"d":"284,-557r-46,0r87,-123r72,0xm29,0r113,-534r272,0r-12,57r-208,0r-38,178r203,0r-12,56r-203,0r-40,187r214,0r-12,56r-277,0","w":389},"\u00d1":{"d":"361,-619v19,33,72,15,76,-18r43,0v-7,64,-115,113,-155,47v-23,-24,-68,-1,-70,28r-43,0v12,-52,64,-95,127,-76v9,3,16,9,22,19xm316,1r-128,-449r-95,448r-64,0r113,-534r91,0r128,448r95,-448r65,0r-114,535r-91,0","w":517},"\u00d6":{"d":"389,-592r13,-59r59,0r-13,59r-59,0xm266,-592r13,-59r59,0r-13,59r-59,0xm500,-464v80,127,-2,324,-83,395v-62,55,-183,105,-279,56v-77,-39,-117,-137,-88,-253v36,-148,123,-267,296,-275v73,-4,125,31,154,77xm242,-48v127,0,192,-104,217,-218v26,-116,-13,-219,-124,-219v-95,0,-146,63,-185,128v-36,59,-59,182,-16,249v22,35,55,60,108,60","w":544},"\u00dc":{"d":"373,-592r13,-59r58,0r-13,59r-58,0xm251,-592r13,-59r58,0r-13,59r-58,0xm437,-163v-25,126,-145,204,-294,164v-63,-17,-99,-74,-80,-164r79,-371r64,0r-79,371v-33,117,115,146,192,88v26,-20,45,-51,54,-88r78,-371r65,0","w":511},"\u00e1":{"d":"244,-421r-46,0r88,-123r72,0xm93,-342v67,-75,297,-81,264,76r-56,266r-58,0r13,-64v-29,76,-217,110,-232,4v-19,-137,114,-176,266,-167v15,-40,13,-96,-29,-108v-52,-14,-110,4,-139,30xm279,-176v-89,-4,-182,0,-194,72v-14,86,114,61,150,18v21,-25,39,-52,44,-90","w":405},"\u00e0":{"d":"253,-421r-61,-123r72,0r36,123r-47,0xm93,-342v67,-75,297,-81,264,76r-56,266r-58,0r13,-64v-29,76,-217,110,-232,4v-19,-137,114,-176,266,-167v15,-40,13,-96,-29,-108v-52,-14,-110,4,-139,30xm279,-176v-89,-4,-182,0,-194,72v-14,86,114,61,150,18v21,-25,39,-52,44,-90","w":405},"\u00e2":{"d":"291,-421r-28,-77r-61,77r-57,0r95,-123r65,0r43,123r-57,0xm93,-342v67,-75,297,-81,264,76r-56,266r-58,0r13,-64v-29,76,-217,110,-232,4v-19,-137,114,-176,266,-167v15,-40,13,-96,-29,-108v-52,-14,-110,4,-139,30xm279,-176v-89,-4,-182,0,-194,72v-14,86,114,61,150,18v21,-25,39,-52,44,-90","w":405},"\u00e4":{"d":"289,-472r13,-59r58,0r-12,59r-59,0xm166,-472r13,-59r59,0r-13,59r-59,0xm93,-342v67,-75,297,-81,264,76r-56,266r-58,0r13,-64v-29,76,-217,110,-232,4v-19,-137,114,-176,266,-167v15,-40,13,-96,-29,-108v-52,-14,-110,4,-139,30xm279,-176v-89,-4,-182,0,-194,72v-14,86,114,61,150,18v21,-25,39,-52,44,-90","w":405},"\u00e3":{"d":"275,-509v15,35,73,14,76,-18r42,0v-7,66,-111,111,-155,48v-19,-27,-66,1,-69,27r-42,0v7,-60,98,-110,148,-57xm93,-342v67,-75,297,-81,264,76r-56,266r-58,0r13,-64v-29,76,-217,110,-232,4v-19,-137,114,-176,266,-167v15,-40,13,-96,-29,-108v-52,-14,-110,4,-139,30xm279,-176v-89,-4,-182,0,-194,72v-14,86,114,61,150,18v21,-25,39,-52,44,-90","w":405},"\u00e5":{"d":"267,-544v57,0,58,79,20,100v-35,36,-104,10,-91,-41v7,-29,37,-59,71,-59xm93,-342v67,-75,297,-81,264,76r-56,266r-58,0r13,-64v-29,76,-217,110,-232,4v-19,-137,114,-176,266,-167v15,-40,13,-96,-29,-108v-52,-14,-110,4,-139,30xm220,-457v32,33,96,-14,69,-57v-32,-35,-96,16,-69,57xm279,-176v-89,-4,-182,0,-194,72v-14,86,114,61,150,18v21,-25,39,-52,44,-90","w":405},"\u00e7":{"d":"299,-42v-30,25,-76,48,-124,50r-14,20v49,1,49,73,10,90v-30,23,-99,25,-123,-4r26,-22v23,33,107,2,71,-32v-6,-6,-20,-8,-38,-8r33,-47v-85,-15,-132,-94,-108,-197v26,-110,97,-200,224,-200v46,0,85,22,106,50r-45,37v-33,-51,-136,-36,-167,8v-69,50,-99,252,32,252v35,-1,66,-15,87,-34","w":352},"\u00e9":{"d":"250,-421r-46,0r87,-123r72,0xm312,-42v-57,63,-214,72,-257,-6v-79,-143,25,-344,188,-344v111,0,147,101,118,218r-271,0v-8,77,23,129,98,129v41,0,69,-14,95,-34xm306,-227v10,-78,-42,-133,-114,-103v-43,18,-73,57,-88,103r202,0","w":394},"\u00e8":{"d":"251,-421r-62,-123r72,0r36,123r-46,0xm312,-42v-57,63,-214,72,-257,-6v-79,-143,25,-344,188,-344v111,0,147,101,118,218r-271,0v-8,77,23,129,98,129v41,0,69,-14,95,-34xm306,-227v10,-78,-42,-133,-114,-103v-43,18,-73,57,-88,103r202,0","w":394},"\u00ea":{"d":"291,-421r-28,-77r-61,77r-57,0r95,-123r65,0r43,123r-57,0xm312,-42v-57,63,-214,72,-257,-6v-79,-143,25,-344,188,-344v111,0,147,101,118,218r-271,0v-8,77,23,129,98,129v41,0,69,-14,95,-34xm306,-227v10,-78,-42,-133,-114,-103v-43,18,-73,57,-88,103r202,0","w":394},"\u00eb":{"d":"292,-472r12,-59r59,0r-12,59r-59,0xm169,-472r12,-59r59,0r-12,59r-59,0xm312,-42v-57,63,-214,72,-257,-6v-79,-143,25,-344,188,-344v111,0,147,101,118,218r-271,0v-8,77,23,129,98,129v41,0,69,-14,95,-34xm306,-227v10,-78,-42,-133,-114,-103v-43,18,-73,57,-88,103r202,0","w":394},"\u00ed":{"d":"153,-421r-46,0r88,-123r72,0xm24,0r81,-384r58,0r-81,384r-58,0"},"\u00ec":{"d":"131,-421r-61,-123r72,0r35,123r-46,0xm24,0r81,-384r58,0r-81,384r-58,0"},"\u00ee":{"d":"187,-421r-28,-77r-62,77r-56,0r95,-123r64,0r43,123r-56,0xm24,0r81,-384r58,0r-81,384r-58,0"},"\u00ef":{"d":"185,-472r12,-59r59,0r-12,59r-59,0xm63,-472r12,-59r58,0r-12,59r-58,0xm24,0r81,-384r58,0r-81,384r-58,0"},"\u00f1":{"d":"305,-509v16,35,72,14,76,-18r43,0v-6,65,-112,111,-155,48v-19,-27,-67,0,-70,27r-42,0v7,-60,98,-110,148,-57xm150,-320v27,-69,180,-103,231,-33v19,26,24,61,14,107r-52,246r-58,0r52,-246v30,-106,-103,-112,-159,-55v-63,63,-69,199,-96,301r-58,0r81,-384r58,0","w":447},"\u00f3":{"d":"257,-421r-46,0r87,-123r72,0xm301,-46v-54,60,-196,75,-248,0v-40,-57,-24,-172,10,-229v45,-73,143,-148,252,-103v123,51,70,280,-14,332xm177,-45v102,0,152,-97,150,-207v-1,-68,-68,-104,-135,-76v-74,31,-132,149,-88,242v12,25,38,41,73,41","w":416},"\u00f2":{"d":"257,-421r-62,-123r72,0r36,123r-46,0xm301,-46v-54,60,-196,75,-248,0v-40,-57,-24,-172,10,-229v45,-73,143,-148,252,-103v123,51,70,280,-14,332xm177,-45v102,0,152,-97,150,-207v-1,-68,-68,-104,-135,-76v-74,31,-132,149,-88,242v12,25,38,41,73,41","w":416},"\u00f4":{"d":"302,-421r-28,-77r-62,77r-56,0r95,-123r64,0r44,123r-57,0xm301,-46v-54,60,-196,75,-248,0v-40,-57,-24,-172,10,-229v45,-73,143,-148,252,-103v123,51,70,280,-14,332xm177,-45v102,0,152,-97,150,-207v-1,-68,-68,-104,-135,-76v-74,31,-132,149,-88,242v12,25,38,41,73,41","w":416},"\u00f6":{"d":"300,-472r12,-59r59,0r-12,59r-59,0xm177,-472r12,-59r59,0r-13,59r-58,0xm301,-46v-54,60,-196,75,-248,0v-40,-57,-24,-172,10,-229v45,-73,143,-148,252,-103v123,51,70,280,-14,332xm177,-45v102,0,152,-97,150,-207v-1,-68,-68,-104,-135,-76v-74,31,-132,149,-88,242v12,25,38,41,73,41","w":416},"\u00f5":{"d":"287,-509v14,36,72,13,75,-18r43,0v-7,66,-111,110,-156,48v-19,-27,-66,1,-69,27r-42,0v11,-53,64,-94,127,-75v9,3,15,10,22,18xm301,-46v-54,60,-196,75,-248,0v-40,-57,-24,-172,10,-229v45,-73,143,-148,252,-103v123,51,70,280,-14,332xm177,-45v102,0,152,-97,150,-207v-1,-68,-68,-104,-135,-76v-74,31,-132,149,-88,242v12,25,38,41,73,41","w":416},"\u00fa":{"d":"276,-421r-46,0r87,-123r72,0xm298,-64v-27,69,-180,103,-231,33v-19,-26,-24,-62,-14,-108r52,-245r58,0r-51,245v-30,107,101,115,158,57v63,-64,68,-200,96,-302r59,0r-82,384r-58,0","w":447},"\u00f9":{"d":"256,-421r-61,-123r72,0r35,123r-46,0xm298,-64v-27,69,-180,103,-231,33v-19,-26,-24,-62,-14,-108r52,-245r58,0r-51,245v-30,107,101,115,158,57v63,-64,68,-200,96,-302r59,0r-82,384r-58,0","w":447},"\u00fb":{"d":"318,-421r-29,-77r-61,77r-57,0r96,-123r64,0r43,123r-56,0xm298,-64v-27,69,-180,103,-231,33v-19,-26,-24,-62,-14,-108r52,-245r58,0r-51,245v-30,107,101,115,158,57v63,-64,68,-200,96,-302r59,0r-82,384r-58,0","w":447},"\u00fc":{"d":"313,-472r12,-59r59,0r-12,59r-59,0xm190,-472r12,-59r59,0r-12,59r-59,0xm298,-64v-27,69,-180,103,-231,33v-19,-26,-24,-62,-14,-108r52,-245r58,0r-51,245v-30,107,101,115,158,57v63,-64,68,-200,96,-302r59,0r-82,384r-58,0","w":447},"\u00b0":{"d":"202,-541v76,-7,103,85,64,141v-27,64,-173,93,-187,0v-12,-81,43,-134,123,-141xm130,-399v45,50,142,-22,101,-83v-48,-49,-140,22,-101,83","w":256},"\u00a2":{"d":"201,-120v33,-1,64,-16,84,-34r30,37v-32,25,-77,48,-126,50r-13,67r-32,0r14,-69v-86,-14,-133,-93,-110,-197v23,-103,89,-177,194,-198r15,-70r32,0r-15,67v45,1,83,23,105,50r-46,38v-14,-20,-38,-34,-69,-34xm230,-410v-83,22,-151,132,-115,236v8,24,30,42,55,50","w":352},"\u00a3":{"d":"390,-436v-23,-49,-114,-64,-160,-20v-44,42,-47,123,-65,190r91,0r-8,34r-90,0r-38,176r228,0r-11,56r-351,0r12,-56r61,0r37,-176r-61,0r7,-34r62,0v21,-151,69,-306,256,-270v38,7,60,33,80,59","w":391},"\u00a7":{"d":"314,-451v-24,-46,-129,-48,-156,-1v-20,35,-1,63,34,73v64,19,141,42,122,131v-7,32,-26,58,-50,77v62,115,-92,226,-214,166v-18,-9,-32,-22,-44,-37r45,-37v24,46,135,50,156,1v51,-116,-192,-52,-156,-205v8,-32,26,-57,50,-77v-62,-112,89,-225,213,-166v19,9,33,23,45,37xm217,-202v27,-15,49,-48,29,-80v-15,-25,-67,-33,-99,-46v-26,15,-48,49,-28,80v16,24,67,32,98,46","w":333},"\u00b6":{"d":"205,133r131,-615r-50,0r-131,615r-56,0r79,-373v-82,-1,-133,-58,-115,-147v17,-82,81,-147,177,-147r163,0r-142,667r-56,0","w":394},"\u00df":{"d":"132,-48v100,22,186,-36,178,-142v-5,-58,-63,-71,-134,-66r11,-51v98,8,164,-30,160,-126v-3,-65,-101,-70,-141,-30v-17,17,-35,39,-40,65r-84,398r-58,0r83,-396v19,-100,120,-169,240,-135v64,18,81,119,41,179v-21,31,-49,58,-84,71v50,14,85,62,71,129v-23,107,-118,176,-253,155","w":426},"\u00ae":{"d":"557,-455v58,76,44,219,-5,292v-69,103,-222,210,-380,142v-81,-35,-137,-121,-111,-245v25,-120,112,-202,215,-247v104,-45,232,-6,281,58xm374,-48v117,-46,214,-150,192,-311v-16,-117,-158,-177,-284,-126v-94,37,-166,113,-191,219v-40,176,118,283,283,218xm380,-271v67,8,31,115,38,180r-44,0v-7,-58,29,-160,-37,-160r-78,0r-34,160r-42,0r75,-352v89,5,219,-29,204,87v-5,41,-43,76,-82,85xm267,-288v85,11,170,-16,144,-102v-15,-25,-79,-13,-119,-16","w":624},"\u00a9":{"d":"557,-455v58,76,44,219,-5,292v-69,103,-222,210,-380,142v-81,-35,-137,-121,-111,-245v25,-120,112,-202,215,-247v104,-45,232,-6,281,58xm374,-48v117,-46,214,-150,192,-311v-16,-117,-158,-177,-284,-126v-94,37,-166,113,-191,219v-40,176,118,283,283,218xm223,-161v29,51,127,48,164,6r21,28v-50,51,-188,59,-223,-9v-77,-151,57,-361,243,-301v17,5,29,18,39,31r-33,27v-33,-51,-131,-30,-167,7v-40,42,-83,142,-44,211","w":624},"\u00b4":{"d":"148,-421r-46,0r87,-123r72,0","w":239},"\u00a8":{"d":"196,-472r12,-59r58,0r-12,59r-58,0xm73,-472r13,-59r58,0r-12,59r-59,0","w":208},"\u00c6":{"d":"264,0r28,-136r-198,0r-108,136r-72,0r431,-534r304,0r-13,57r-208,0r-37,178r203,0r-12,56r-203,0r-40,187r213,0r-11,56r-277,0xm364,-477r-226,285r166,0","w":624},"\u00d8":{"d":"247,-521v71,-32,176,-24,222,21r52,-60r48,0r-75,86v62,76,38,237,-10,318v-52,87,-127,164,-254,164v-53,0,-92,-17,-123,-41r-52,60r-48,0r75,-86v-65,-74,-38,-238,10,-318v38,-64,88,-114,155,-144xm242,-48v127,0,189,-105,217,-218v14,-59,7,-112,-13,-154r-295,336v24,24,54,36,91,36xm424,-449v-60,-65,-174,-26,-222,23v-60,61,-124,204,-72,312","w":544},"\u00b1":{"d":"242,-277r-30,144r-49,0r31,-144r-144,0r10,-48r144,0r31,-144r48,0r-30,144r144,0r-11,48r-144,0xm2,-53r10,-49r336,0r-10,49r-336,0","w":400},"\u00a5":{"d":"290,-281r108,0r-7,35r-131,0r-10,47r131,0r-7,36r-131,0r-35,163r-64,0r35,-163r-131,0r7,-36r131,0r10,-47r-131,0r7,-35r108,0r-118,-253r78,0r100,231r199,-231r77,0","w":432},"\u00b5":{"d":"298,-64v-23,61,-161,104,-212,42r-33,155r-58,0r110,-517r58,0r-51,245v-30,107,101,115,158,57v63,-64,68,-200,96,-302r59,0r-82,384r-58,0","w":447},"\u03bc":{"d":"298,-64v-23,61,-161,104,-212,42r-33,155r-58,0r110,-517r58,0r-51,245v-30,107,101,115,158,57v63,-64,68,-200,96,-302r59,0r-82,384r-58,0","w":447},"\u00aa":{"d":"114,-504v32,-34,133,-56,170,-12v14,17,19,39,14,65r-40,185r-40,0r10,-45v-23,62,-182,74,-161,-27v15,-71,89,-92,185,-86v16,-38,2,-79,-45,-79v-32,0,-54,12,-72,25xm244,-389v-63,-4,-128,3,-135,51v-8,60,80,41,104,12v15,-18,27,-38,31,-63","w":290},"\u00ba":{"d":"273,-529v61,21,63,135,26,187v-28,66,-159,122,-208,43v-68,-108,43,-278,182,-230xm176,-298v61,0,89,-50,102,-102v15,-58,-8,-102,-58,-102v-74,0,-127,103,-94,176v9,19,27,28,50,28","w":308},"\u00e6":{"d":"353,-328v48,-64,191,-94,242,-13v26,42,29,99,15,167r-272,0v-8,77,23,127,98,129v36,0,68,-11,95,-34r29,37v-39,31,-72,49,-136,50v-70,0,-117,-33,-136,-89v-33,67,-176,130,-246,57v-47,-48,-5,-142,38,-164v45,-36,125,-42,210,-39v15,-40,13,-96,-29,-108v-52,-14,-110,4,-139,30r-29,-37v36,-28,82,-53,145,-53v61,0,101,24,115,67xm554,-227v10,-78,-42,-134,-115,-103v-42,18,-72,57,-87,103r202,0xm279,-176v-89,-4,-182,0,-194,72v-14,86,114,61,150,18v21,-25,39,-52,44,-90","w":642},"\u00f8":{"d":"357,-346v71,83,11,256,-56,300v-47,48,-153,77,-220,29r-36,44r-41,0r55,-65v-51,-50,-31,-176,4,-237v45,-79,170,-157,272,-91r37,-44r40,0xm177,-45v102,0,151,-95,151,-205v0,-18,-6,-33,-13,-45r-193,230v15,13,33,20,55,20xm296,-320v-127,-68,-243,91,-194,231","w":416},"\u00bf":{"d":"231,-464r15,-70r69,0r-15,70r-69,0xm92,-136v-19,117,151,96,191,39r32,41v-72,90,-322,94,-289,-80v25,-129,172,-135,197,-264r59,0v-19,107,-109,139,-166,208v-13,16,-20,33,-24,56","w":365},"\u00a1":{"d":"125,-464r15,-70r69,0r-15,70r-69,0xm24,0r98,-400r48,0r-71,400r-75,0","w":202},"\u0192":{"d":"-54,83v51,15,93,-9,109,-46r138,-322r-71,0r9,-40r79,0v42,-104,78,-240,238,-209r-22,52v-49,-18,-94,7,-110,45r-47,112r84,0r-9,40r-93,0r-142,333v-25,62,-97,106,-185,85","w":373},"\u00ab":{"d":"202,-64r-43,-149r107,-150r62,0r-107,150r43,149r-62,0xm90,-64r-43,-149r107,-150r62,0r-107,150r43,149r-62,0","w":319},"\u00bb":{"d":"175,-64r-61,0r106,-149r-42,-150r61,0r43,150xm63,-64r-62,0r107,-149r-42,-150r61,0r43,150","w":319},"\u00a0":{"w":202},"\u00c0":{"d":"325,-557r-62,-123r72,0r36,123r-46,0xm357,0r-20,-136r-228,0r-77,136r-69,0r310,-534r69,0r84,534r-69,0xm291,-456r-151,264r189,0","w":469},"\u00c3":{"d":"339,-619v18,33,73,16,76,-18r43,0v-7,66,-111,109,-155,47v-19,-26,-67,1,-69,28r-42,0v10,-53,63,-93,125,-76v8,4,16,9,22,19xm357,0r-20,-136r-228,0r-77,136r-69,0r310,-534r69,0r84,534r-69,0xm291,-456r-151,264r189,0","w":469},"\u00d5":{"d":"374,-619v16,35,72,14,76,-18r42,0v-6,67,-112,109,-155,47v-18,-26,-68,0,-69,28r-43,0v12,-52,64,-95,127,-76v9,3,15,10,22,19xm500,-464v80,127,-2,324,-83,395v-62,55,-183,105,-279,56v-77,-39,-117,-137,-88,-253v36,-148,123,-267,296,-275v73,-4,125,31,154,77xm242,-48v127,0,192,-104,217,-218v26,-116,-13,-219,-124,-219v-95,0,-146,63,-185,128v-36,59,-59,182,-16,249v22,35,55,60,108,60","w":544},"\u0152":{"d":"247,-521v94,-41,221,-17,252,65r17,-78r272,0r-13,57r-208,0r-37,178r202,0r-12,56r-202,0r-40,187r213,0r-11,56r-278,0r16,-77v-55,67,-181,114,-280,64v-77,-38,-115,-136,-88,-253v28,-119,95,-210,197,-255xm242,-48v127,0,192,-104,217,-218v26,-116,-13,-219,-124,-219v-95,0,-146,63,-185,128v-36,59,-59,182,-16,249v22,35,55,60,108,60","w":762},"\u0153":{"d":"377,-307v42,-75,199,-126,260,-34v28,42,30,99,15,167r-271,0v-8,77,23,129,97,129v43,0,69,-14,96,-34r29,37v-39,31,-72,49,-136,50v-69,0,-118,-35,-137,-87v-45,81,-210,125,-277,33v-41,-56,-26,-173,10,-229v40,-62,95,-117,188,-117v62,0,112,36,126,85xm597,-227v9,-78,-43,-134,-115,-103v-42,18,-72,57,-87,103r202,0xm177,-45v102,0,152,-97,150,-207v-1,-68,-68,-104,-135,-76v-74,31,-132,149,-88,242v12,25,38,41,73,41","w":685},"\u00ff":{"d":"287,-472r12,-59r58,0r-12,59r-58,0xm163,-472r13,-59r59,0r-13,59r-59,0xm425,-384r-301,480v-25,32,-84,54,-143,37r11,-50v38,12,79,0,94,-26r31,-52r-71,-389r67,0r52,323r194,-323r66,0","w":389},"\u0178":{"d":"315,-579r13,-58r58,0r-13,58r-58,0xm192,-579r13,-58r59,0r-13,58r-59,0xm244,-246r-52,246r-64,0r52,-246r-134,-288r77,0r102,231r198,-231r77,0","w":401},"\u00b7":{"d":"55,-179r16,-69r69,0r-15,69r-70,0"},"\u00c2":{"d":"357,-557r-28,-77r-61,77r-57,0r95,-123r64,0r44,123r-57,0xm357,0r-20,-136r-228,0r-77,136r-69,0r310,-534r69,0r84,534r-69,0xm291,-456r-151,264r189,0","w":469},"\u00ca":{"d":"330,-557r-28,-77r-61,77r-57,0r95,-123r64,0r44,123r-57,0xm29,0r113,-534r272,0r-12,57r-208,0r-38,178r203,0r-12,56r-203,0r-40,187r214,0r-12,56r-277,0","w":389},"\u00c1":{"d":"297,-557r-46,0r87,-123r72,0xm357,0r-20,-136r-228,0r-77,136r-69,0r310,-534r69,0r84,534r-69,0xm291,-456r-151,264r189,0","w":469},"\u00cb":{"d":"328,-592r13,-59r59,0r-13,59r-59,0xm205,-592r13,-59r58,0r-12,59r-59,0xm29,0r113,-534r272,0r-12,57r-208,0r-38,178r203,0r-12,56r-203,0r-40,187r214,0r-12,56r-277,0","w":389},"\u00c8":{"d":"299,-557r-62,-123r72,0r35,123r-45,0xm29,0r113,-534r272,0r-12,57r-208,0r-38,178r203,0r-12,56r-203,0r-40,187r214,0r-12,56r-277,0","w":389},"\u00cd":{"d":"179,-557r-45,0r87,-123r72,0xm29,0r113,-534r64,0r-113,534r-64,0","w":202},"\u00ce":{"d":"224,-557r-28,-77r-61,77r-57,0r95,-123r64,0r43,123r-56,0xm29,0r113,-534r64,0r-113,534r-64,0","w":202},"\u00cf":{"d":"218,-592r13,-59r59,0r-13,59r-59,0xm96,-592r13,-59r58,0r-13,59r-58,0xm29,0r113,-534r64,0r-113,534r-64,0","w":202},"\u00cc":{"d":"179,-557r-62,-123r72,0r36,123r-46,0xm29,0r113,-534r64,0r-113,534r-64,0","w":202},"\u00d3":{"d":"372,-557r-47,0r88,-123r72,0xm500,-464v80,127,-2,324,-83,395v-62,55,-183,105,-279,56v-77,-39,-117,-137,-88,-253v36,-148,123,-267,296,-275v73,-4,125,31,154,77xm242,-48v127,0,192,-104,217,-218v26,-116,-13,-219,-124,-219v-95,0,-146,63,-185,128v-36,59,-59,182,-16,249v22,35,55,60,108,60","w":544},"\u00d4":{"d":"395,-557r-29,-77r-61,77r-57,0r95,-123r65,0r43,123r-56,0xm500,-464v80,127,-2,324,-83,395v-62,55,-183,105,-279,56v-77,-39,-117,-137,-88,-253v36,-148,123,-267,296,-275v73,-4,125,31,154,77xm242,-48v127,0,192,-104,217,-218v26,-116,-13,-219,-124,-219v-95,0,-146,63,-185,128v-36,59,-59,182,-16,249v22,35,55,60,108,60","w":544},"\u00d2":{"d":"327,-557r-62,-123r72,0r36,123r-46,0xm500,-464v80,127,-2,324,-83,395v-62,55,-183,105,-279,56v-77,-39,-117,-137,-88,-253v36,-148,123,-267,296,-275v73,-4,125,31,154,77xm242,-48v127,0,192,-104,217,-218v26,-116,-13,-219,-124,-219v-95,0,-146,63,-185,128v-36,59,-59,182,-16,249v22,35,55,60,108,60","w":544},"\u00da":{"d":"342,-557r-45,0r87,-123r72,0xm437,-163v-25,126,-145,204,-294,164v-63,-17,-99,-74,-80,-164r79,-371r64,0r-79,371v-33,117,115,146,192,88v26,-20,45,-51,54,-88r78,-371r65,0","w":511},"\u00db":{"d":"379,-557r-28,-77r-62,77r-56,0r95,-123r64,0r43,123r-56,0xm437,-163v-25,126,-145,204,-294,164v-63,-17,-99,-74,-80,-164r79,-371r64,0r-79,371v-33,117,115,146,192,88v26,-20,45,-51,54,-88r78,-371r65,0","w":511},"\u00d9":{"d":"328,-557r-62,-123r72,0r36,123r-46,0xm437,-163v-25,126,-145,204,-294,164v-63,-17,-99,-74,-80,-164r79,-371r64,0r-79,371v-33,117,115,146,192,88v26,-20,45,-51,54,-88r78,-371r65,0","w":511},"\u0131":{"d":"24,0r81,-384r58,0r-81,384r-58,0"},"\u00af":{"d":"101,-474r9,-46r160,0r-9,46r-160,0","w":239},"\u00b8":{"d":"9,92v23,34,110,1,71,-32v-7,-6,-20,-8,-38,-8r36,-52r38,0r-20,28v33,1,51,42,29,72v-25,34,-108,50,-142,14","w":250},"\u00d0":{"d":"461,-467v69,76,41,245,-10,318v-59,85,-147,149,-280,149r-142,0r51,-243r-56,0r11,-48r55,0r52,-243v128,-1,254,-4,319,67xm104,-56v191,14,296,-62,328,-210v28,-131,-33,-211,-161,-211r-77,0r-40,186r56,0r-10,48r-56,0","w":517}}});
